6 784 120 120 120 120 26 -0.343532 0.265277 0.512821 0.982075 -0.269323 -0.505922 0.965101 0.445321 0.506712 0.303037 -0.854628 0.263269 0.769414 -0.454580 -0.127177 0.532990 -0.044536 -0.524451 -0.450186 -0.281470 -0.666986 -0.026965 0.795313 0.818416 -0.878871 0.809306 0.009046 0.032584 -0.361934 0.973284 -0.012047 -0.467711 -0.818534 0.895528 -0.852502 0.001414 -0.231716 -0.445836 0.827635 0.059495 -0.071108 0.881960 -0.899832 0.523029 0.540409 0.655635 -0.749269 -0.968265 0.376911 0.736494 0.259087 0.472449 0.450824 0.998916 0.777144 -0.533610 -0.387356 -0.297970 0.026547 0.182227 0.691963 -0.175838 0.683021 -0.461365 -0.169211 0.074608 -0.064165 -0.425575 -0.643345 -0.692560 0.143310 0.604811 -0.933892 0.068900 -0.003040 0.910722 0.496585 0.109168 0.781475 0.249699 0.684079 -0.680465 -0.574497 0.429420 -0.739145 -0.818019 -0.450824 -0.994001 -0.171413 -0.946247 0.419639 0.875795 -0.520178 -0.638208 -0.364921 0.773981 0.304117 -0.699330 0.362692 -0.228371 -0.224549 -0.000518 -0.704934 0.174373 0.691151 0.180217 0.910818 0.112292 -0.703697 0.966610 -0.182467 -0.716360 0.129797 -0.495747 -0.022971 -0.071939 0.922190 -0.747938 -0.600486 -0.361501 0.258538 -0.746576 0.302507 0.243268 0.606146 -0.504316 -0.047136 -0.221372 -0.593499 -0.943250 0.803347 -0.147005 -0.715958 0.894974 -0.179374 -0.737623 0.771297 -0.815653 -0.675603 -0.857873 -0.269322 -0.493885 -0.729781 0.566306 -0.089385 -0.300952 -0.095400 0.617889 0.863349 0.303292 -0.569503 0.359185 0.817844 -0.499749 0.721720 -0.057475 0.011912 0.200787 0.635123 0.511687 -0.075510 0.902735 0.265477 -0.121339 0.649395 0.377962 0.404413 0.974291 0.908830 0.702539 -0.421368 0.074851 0.028869 -0.793132 -0.171943 0.153433 0.753131 -0.119923 0.459495 0.738527 0.431285 0.601441 0.413071 0.483432 -0.961815 0.772062 0.049975 -0.073355 -0.869612 0.426845 -0.022114 0.335358 0.364098 -0.600891 0.833268 0.731765 0.780037 0.087897 -0.721610 -0.099305 0.978725 -0.568936 -0.107953 -0.368535 0.029319 0.763008 -0.120549 -0.064936 0.613300 -0.269684 -0.576962 0.998233 -0.692791 0.260977 0.232701 -0.998810 -0.998242 0.546704 0.454670 -0.361645 -0.164553 0.364988 0.361124 -0.589476 0.672840 0.417841 0.657416 -0.810902 -0.836525 0.528010 0.259144 -0.572296 -0.572906 -0.837878 -0.222354 0.904319 0.895090 -0.220293 -0.461571 0.384338 -0.431930 0.553732 0.567730 -0.155080 -0.435688 -0.612065 -0.977368 -0.616352 0.966472 -0.511892 0.639452 -0.727090 -0.203713 0.202020 -0.646239 0.656709 -0.684538 0.975874 -0.485663 -0.532802 -0.796725 -0.561179 0.269435 0.392015 0.589540 0.392486 0.505881 0.339041 0.266860 -0.887119 0.196433 -0.545985 -0.362444 0.399669 -0.765126 0.525141 0.052247 0.107823 0.175978 -0.340667 0.405979 -0.713909 -0.676625 -0.029350 0.720451 0.626531 0.113672 0.477993 -0.367985 -0.729336 0.057097 -0.378522 0.176238 0.036167 -0.138304 -0.482314 -0.259547 -0.213965 -0.106268 -0.048208 -0.224338 -0.441414 -0.843474 -0.260516 -0.492155 0.343568 0.352474 0.027873 0.457217 0.441536 0.889506 -0.078605 0.880326 -0.356880 -0.079132 0.034291 0.322711 -0.196334 0.211279 0.973005 -0.699212 0.340197 -0.312365 0.083420 0.045615 0.658477 -0.970099 -0.451581 0.285958 0.092273 0.835695 -0.466773 0.940173 -0.506534 0.687951 0.388047 -0.088497 0.634203 -0.955833 -0.678502 0.413900 0.415653 -0.126723 0.164842 0.503420 0.983066 0.391358 -0.440977 0.507725 -0.657642 -0.991492 -0.008618 -0.840166 -0.673838 0.806602 0.565984 0.493358 -0.127149 -0.987317 0.169574 0.036957 -0.866300 0.088045 -0.220537 -0.568348 -0.228461 0.253723 0.318107 0.418640 0.077323 -0.439422 0.631864 -0.256181 0.372203 -0.379662 -0.981305 -0.792405 0.041920 0.551761 -0.558630 -0.889442 -0.858730 -0.679452 0.447527 -0.405956 -0.898795 -0.044391 -0.085676 0.039977 -0.107021 -0.699377 -0.428115 0.667364 0.391275 0.155552 0.362329 -0.337650 -0.885049 0.973766 0.084786 -0.996685 0.712385 -0.941289 -0.244899 -0.020697 0.152346 0.477917 0.358664 0.072534 -0.928825 -0.754986 0.946711 -0.623448 -0.297363 0.228251 0.215223 -0.748134 0.105724 0.908057 -0.286150 0.676203 0.948505 -0.481972 -0.496945 -0.151328 0.626096 0.795828 -0.510828 0.521235 0.389713 -0.096298 -0.472760 0.331007 -0.766858 -0.580875 -0.772649 0.093950 -0.987841 -0.648051 0.198719 -0.136183 -0.834987 0.374829 -0.249380 0.672413 -0.752725 0.946692 -0.940729 -0.839294 -0.011511 0.538875 0.868061 -0.499689 -0.280684 0.538228 -0.000089 0.498503 0.343807 0.363332 0.513540 -0.927265 -0.538856 -0.556665 0.125204 0.305244 0.233221 -0.257069 -0.550398 -0.532617 0.306023 -0.668145 0.488208 -0.680485 -0.904723 0.323987 -0.750110 0.898314 -0.031639 0.242091 0.828050 -0.964111 0.187091 0.443743 -0.006836 -0.892611 -0.116735 0.038350 0.543888 -0.869287 -0.114419 0.954360 -0.064517 -0.341888 -0.108140 0.486548 -0.589317 -0.657241 -0.254960 0.879451 0.929702 -0.490085 -0.859330 -0.752302 0.052676 -0.679834 0.035414 -0.789630 0.683152 -0.262876 -0.152219 -0.345545 0.427093 0.153552 0.743768 0.516492 0.673196 0.399582 -0.221880 0.870483 0.211205 -0.275833 0.079009 -0.089855 -0.196616 -0.519119 -0.833829 -0.156843 -0.055240 -0.420467 -0.790062 -0.567228 0.604037 0.054878 0.337641 0.727286 -0.512499 0.423129 -0.472674 -0.234357 -0.837989 -0.080474 -0.534266 0.590705 -0.017314 -0.993542 -0.467762 0.329378 -0.149618 -0.626351 0.926951 -0.731922 0.591711 0.892089 -0.657690 0.212003 -0.872393 -0.305017 -0.415064 0.019316 0.651673 0.668677 0.452886 -0.341131 0.604169 0.263527 -0.909319 -0.917159 -0.693370 0.534130 -0.876537 0.038606 0.858300 -0.558969 -0.590874 -0.822015 0.399382 0.412923 -0.010738 -0.476443 0.423143 -0.243268 -0.598711 -0.534785 -0.127808 -0.061003 0.722375 0.954477 -0.110962 -0.931514 0.047543 -0.936722 0.506348 0.183176 0.645782 -0.340842 -0.535844 0.073057 -0.138763 -0.192838 0.974649 0.933819 0.701061 0.735028 -0.376790 -0.703219 0.995197 0.279047 -0.063851 0.863829 0.381545 0.630814 0.083069 0.145613 -0.681568 0.890501 0.642667 -0.689172 -0.917850 -0.312773 -0.779961 -0.806923 0.037547 -0.955190 0.122967 0.713752 0.033816 0.349049 0.474350 0.396921 -0.954401 -0.616032 0.341982 -0.308257 -0.867419 -0.718579 0.842235 -0.556687 -0.239771 0.172032 -0.665374 -0.947321 0.382253 0.524688 0.427391 -0.845351 0.179619 0.851006 0.859396 -0.139108 0.011939 0.662512 0.838472 0.203275 0.447673 0.038673 -0.018366 -0.677161 0.952231 0.148721 -0.453498 0.062855 0.397116 0.334099 -0.805135 0.097473 0.221475 0.335931 -0.009749 0.143165 0.177776 -0.117374 -0.697566 0.004549 0.462728 -0.936687 -0.896767 0.044127 -0.358715 -0.929881 -0.509715 -0.785639 -0.234063 0.103659 0.194337 0.222221 0.870503 0.544061 0.026297 -0.026638 0.300255 0.393991 -0.184925 -0.026301 -0.040434 0.420900 0.068397 -0.446706 0.211076 -0.439793 0.406739 0.060979 0.876508 -0.529195 -0.173012 0.194952 0.566005 0.840505 0.362982 0.642355 0.054826 -0.539461 -0.712632 0.799042 -0.497156 0.303029 -0.990369 0.871872 -0.449294 0.717532 -0.442143 0.904862 0.013640 -0.754100 -0.167049 0.404943 -0.127018 -0.784522 0.532350 -0.800269 -0.117470 -0.310847 -0.405872 0.515242 -0.322981 -0.338483 -0.888788 0.146366 -0.029428 -0.595036 -0.771051 0.948696 0.729219 -0.016319 -0.265210 0.609825 -0.675592 -0.680840 -0.884554 -0.701497 -0.063797 -0.238783 0.767409 -0.151733 -0.175504 0.302589 -0.383345 -0.879715 0.628833 0.795314 0.838984 0.802436 0.540093 -0.658408 0.144884 -0.937192 0.606536 0.044429 0.723244 -0.445604 0.738988 0.173724 -0.221656 0.623791 0.051340 0.879743 -0.159924 0.159725 0.498290 0.761568 -0.323831 -0.620903 0.486252 0.437839 0.758324 -0.121845 0.420227 0.758120 -0.281241 -0.820294 -0.677942 -0.166407 -0.807143 0.349386 0.125223 0.626094 0.756384 0.538720 0.270411 0.793048 0.756826 -0.027059 -0.773859 -0.245031 -0.234761 0.375156 -0.756521 -0.846356 -0.713396 -0.044718 0.417176 -0.523961 -0.218067 0.951762 0.257533 0.362398 0.817381 -0.275200 0.718426 0.588556 -0.142253 -0.852978 -0.002739 -0.032254 -0.098530 -0.000685 0.481518 0.865687 -0.399757 -0.707609 -0.779963 -0.839356 0.944952 -0.183645 -0.523179 0.926320 0.666948 -0.603840 -0.741037 -0.607385 -0.321762 0.151358 -0.119464 0.171349 -0.134245 -0.263595 -0.235366 0.200265 -0.141054 -0.702425 0.340393 0.990801 0.396133 -0.194520 0.698556 0.639054 0.586764 -0.251501 -0.980784 -0.040443 0.278116 0.292990 0.289796 0.598070 -0.245272 -0.284656 -0.220999 -0.331386 0.387177 -0.710205 -0.416949 0.333713 0.708730 -0.370602 -0.711715 0.204499 -0.988824 0.841659 -0.236090 0.033063 -0.311089 -0.471733 -0.418000 0.667296 -0.751219 0.269239 -0.902605 -0.083908 -0.246367 -0.688254 0.511711 0.331946 -0.976939 0.589762 0.121829 -0.422691 -0.168880 -0.358777 0.029181 0.438310 0.684088 -0.536209 -0.069986 -0.253281 -0.899914 -0.852299 -0.595101 0.132365 0.663048 -0.154895 0.679097 -0.413913 -0.637608 -0.284949 0.868220 0.178838 -0.261919 -0.073883 0.255661 0.888904 -0.188427 -0.899037 -0.110300 0.191854 0.496622 0.728343 -0.737954 -0.790841 0.330616 0.666756 0.162570 0.317187 0.964065 -0.962168 0.842946 -0.610642 0.935446 0.046145 -0.442409 0.439590 0.180917 0.674164 0.669383 0.319775 0.460896 0.286053 -0.300942 0.069752 0.328295 -0.353142 0.738376 -0.115259 0.835935 -0.446665 0.903507 -0.765524 -0.167985 0.672751 0.925071 -0.334143 0.052363 0.071913 0.636215 0.859780 0.325786 -0.513543 0.882858 0.193446 -0.747933 -0.506053 0.773451 -0.607644 -0.674084 0.671994 0.204810 0.246485 0.677357 0.343296 -0.216889 0.742568 0.334696 -0.768787 -0.999920 0.352131 0.257506 -0.090906 0.148692 -0.935461 -0.297215 0.710165 -0.258326 0.322851 0.152860 -0.880080 0.488937 -0.441014 -0.114753 -0.647160 -0.816398 0.794489 0.984839 0.188318 -0.933993 0.381863 -0.025576 0.138680 0.791448 -0.130994 0.377188 -0.593683 -0.036559 -0.455114 0.894240 -0.511400 0.906524 -0.046097 -0.745825 0.922872 0.714312 -0.565180 -0.985984 0.564949 -0.899213 0.920110 0.282748 0.146800 -0.725813 -0.741914 0.649254 0.003707 0.311775 0.010118 0.052909 -0.763205 0.806113 0.337809 -0.444828 -0.226585 -0.217013 0.662193 -0.513997 -0.753111 0.456613 0.296151 -0.597567 0.697391 -0.954887 -0.788875 -0.624042 -0.278065 0.559317 0.438409 0.332728 0.161939 -0.297655 -0.685691 -0.415819 -0.661781 -0.552606 0.342703 -0.190470 0.773021 0.158725 -0.316304 -0.125519 0.399278 0.668566 0.583965 0.698136 -0.435561 -0.470677 -0.660078 0.067064 -0.853633 0.997471 0.500342 -0.755558 -0.670801 -0.149786 0.546405 -0.572864 -0.132143 -0.933846 0.858643 -0.787914 -0.467426 -0.035903 0.585560 -0.484951 -0.572168 -0.435071 -0.238745 -0.583753 0.857055 0.528127 0.233126 0.151705 -0.287332 0.815696 -0.604199 -0.771787 0.582281 0.396325 -0.963498 0.495938 -0.770941 0.789927 0.309258 -0.308219 -0.235174 -0.569902 -0.337417 -0.964430 0.828736 0.570940 -0.213098 0.459967 0.663102 0.755593 -0.740781 -0.313150 0.884139 -0.275617 -0.295879 -0.838690 0.143783 0.552787 0.688403 -0.013409 0.634634 0.285469 -0.129249 -0.295371 -0.301686 -0.436911 0.838237 0.252305 0.489160 -0.684920 0.552835 -0.496089 0.224115 0.709206 -0.370785 0.216889 -0.748156 -0.252676 -0.733413 -0.476275 -0.747938 -0.594365 0.501050 -0.858100 -0.082173 0.926487 -0.530648 -0.604964 0.367892 -0.837347 0.708473 -0.694875 -0.759647 0.618248 0.888385 -0.908959 -0.879475 0.659444 -0.717641 0.602336 -0.545023 -0.201571 0.198388 0.310413 -0.892546 0.972727 0.624610 -0.172841 -0.936323 -0.783903 0.948934 0.734238 0.342159 0.668738 -0.523566 0.433878 0.179416 -0.554920 -0.544475 -0.996853 -0.104372 -0.180468 0.866011 -0.955077 0.026998 -0.246997 0.719021 0.587744 0.218936 -0.336393 0.248010 0.307746 0.288780 -0.481760 -0.947999 0.974083 -0.584501 0.284650 0.120649 -0.246133 -0.758619 -0.101786 -0.724569 0.171600 0.085201 -0.032797 0.773199 -0.836811 -0.274814 -0.798382 -0.401578 0.683336 0.826004 0.655854 0.940598 0.626560 0.595745 0.679592 -0.102559 0.284190 0.387852 0.631519 -0.063581 -0.612733 -0.196891 0.861304 -0.065582 -0.243111 0.035191 -0.544488 0.798535 0.971695 -0.726012 -0.083038 0.378268 -0.441970 -0.181443 0.479863 -0.937490 -0.392135 -0.614707 0.626379 -0.450263 0.435522 -0.182747 0.570146 0.444586 0.154118 0.265877 0.597192 -0.999449 0.255590 -0.307137 -0.056287 -0.015585 0.059239 -0.362901 0.715849 -0.723996 -0.201715 -0.226174 0.692873 -0.887730 -0.086242 0.531064 -0.415010 0.923841 1.000000 0.998184 0.483233 -0.300435 0.593169 -0.601999 0.201469 0.085649 -0.496614 -0.596766 0.151248 0.027518 0.495402 0.216040 0.979270 0.596901 0.109555 -0.706657 -0.785979 0.047569 -0.507399 0.143254 -0.331269 0.357419 -0.861267 0.689281 0.752524 -0.335855 -0.709199 0.488149 0.323782 -0.194433 0.170055 0.110905 -0.011767 0.229003 0.849660 0.227852 -0.487233 -0.920673 0.241428 -0.313021 -0.951666 -0.657213 0.221446 -0.152309 0.136875 0.460745 -0.252054 -0.268712 -0.247446 -0.826788 0.166231 -0.163669 -0.778387 -0.349475 0.370330 0.127967 0.743742 0.063720 0.949076 -0.879517 -0.049312 -0.779736 0.984358 0.099030 0.397409 -0.745526 -0.050032 -0.881306 -0.109785 0.835954 -0.120978 0.717022 0.994353 0.098605 -0.751431 0.692651 -0.619484 0.328691 0.312545 0.946386 -0.084767 -0.681307 -0.721630 -0.433335 0.945927 0.195913 0.704416 -0.874228 0.851246 0.898788 -0.066665 -0.435538 -0.079499 -0.138351 0.732278 -0.602739 -0.230468 0.518393 0.628449 0.345478 0.443171 0.366730 -0.372027 -0.663035 0.376084 0.841871 -0.668471 -0.992363 -0.647388 -0.643696 -0.603895 0.336547 0.348904 0.034964 -0.353190 -0.066065 -0.358351 -0.812713 0.740875 -0.109758 -0.704450 0.304093 0.883963 0.764701 0.321854 -0.592173 -0.659307 -0.967851 -0.669172 -0.781834 -0.277615 0.122266 0.927678 -0.509011 -0.952278 -0.939920 0.772343 0.772703 0.826447 0.094802 -0.654848 -0.025904 0.628838 0.873217 0.166127 0.097813 -0.056494 0.506674 -0.335375 -0.655083 0.025927 -0.239147 0.656330 0.934076 -0.990444 -0.397221 -0.090868 0.780906 0.687065 -0.499288 0.467822 0.679113 -0.154078 0.416958 -0.188252 0.052600 0.051121 -0.816933 -0.192624 0.564261 -0.470422 -0.384282 -0.630064 0.513253 0.241345 0.290692 -0.345373 -0.691535 -0.631290 -0.089602 0.066361 -0.675144 0.851539 -0.181885 -0.937625 -0.665429 0.130123 0.970862 -0.719482 -0.332860 -0.381763 -0.291347 -0.674264 -0.355699 -0.240835 0.282752 0.204622 -0.924634 -0.329794 -0.843572 0.088057 -0.017756 -0.424257 -0.494563 -0.121359 0.317228 -0.348843 -0.996671 0.945392 -0.798260 -0.363247 0.911031 -0.301462 -0.669187 0.970978 -0.767116 -0.916230 0.921912 0.570562 -0.559219 -0.797078 -0.490874 -0.124979 -0.513978 -0.434813 0.098457 0.764604 0.703299 0.340936 0.115221 0.515666 0.803993 0.706760 0.519395 -0.532100 0.996580 -0.477435 -0.249920 -0.400994 0.491044 0.983669 0.532627 -0.142781 0.283330 -0.072398 -0.795064 -0.636239 0.726721 0.006715 0.861950 0.796072 -0.417668 0.258282 0.950800 0.088098 0.661338 -0.890380 -0.620756 0.950588 0.530418 0.739755 -0.935322 0.036875 -0.249126 0.939334 -0.613705 -0.542858 0.193895 0.793009 0.098957 -0.830454 0.553968 0.542180 0.416797 -0.896129 0.767129 -0.856727 0.989322 -0.460165 -0.000454 0.374635 0.496870 0.889295 0.379415 0.823546 -0.657546 0.630664 -0.434345 -0.036246 0.821706 0.406366 -0.201384 -0.788052 0.804987 -0.579872 0.096730 -0.254446 -0.473695 0.613403 -0.528332 0.317824 -0.328789 0.044262 -0.094234 0.213740 0.334209 -0.956468 0.638410 -0.245369 0.083593 0.939400 0.492568 0.586572 0.517398 -0.093544 -0.186500 -0.511548 0.404559 -0.572361 0.322355 -0.185902 -0.447213 -0.313702 -0.397074 0.376802 0.908583 0.556364 0.804608 -0.956688 0.948480 -0.892496 -0.180084 -0.672899 0.592076 -0.976843 0.204013 0.842936 -0.780146 0.090031 -0.853923 0.113034 -0.233238 -0.037140 -0.218134 -0.182655 0.118218 0.882156 0.398059 0.179272 -0.977714 -0.434475 -0.225234 0.491589 0.131380 0.108618 -0.462829 -0.765674 -0.676759 -0.291390 0.616620 -0.468532 -0.616658 -0.171102 0.296309 0.059329 -0.854290 -0.060108 -0.242090 -0.802286 -0.013490 -0.734371 -0.567509 -0.123418 -0.293747 0.987611 0.784298 -0.300120 -0.121699 0.603258 0.964336 -0.397563 0.153276 0.103843 -0.713511 0.013090 -0.000330 0.459283 -0.834805 -0.565875 -0.654146 -0.229562 -0.250757 -0.471272 -0.670631 0.713006 -0.509146 0.786731 0.582313 0.928393 -0.498508 -0.431838 0.099627 0.437796 0.030581 -0.027030 -0.296262 0.716953 -0.175579 -0.959194 0.831375 0.919030 0.137264 0.995764 -0.198954 0.175321 0.612710 -0.183549 -0.913186 0.090870 -0.739802 0.149398 0.938440 0.362671 -0.585582 0.127724 0.661366 -0.414255 -0.387877 0.955969 0.969844 0.167410 -0.334263 0.043147 -0.835211 0.615479 0.363312 0.189529 -0.591694 -0.599195 -0.672127 -0.438425 -0.605070 0.586110 0.743653 0.578401 -0.818509 -0.679985 -0.505949 0.522879 0.034140 -0.216414 0.735983 -0.334611 0.193405 0.560420 0.973458 0.908707 0.645597 0.554077 0.372862 0.683897 0.255997 0.536788 -0.206689 0.170515 -0.159897 0.603198 -0.044483 0.381545 0.627245 0.101838 -0.410414 0.173972 -0.051360 0.797278 -0.141517 -0.480161 -0.071934 -0.999922 0.316129 -0.816319 0.124612 0.358085 0.335247 0.490528 0.304930 0.963977 -0.440616 0.565539 -0.989637 -0.826375 -0.881606 0.853539 -0.570681 0.562712 -0.492677 -0.426818 0.476325 -0.408285 -0.053619 0.819947 0.846123 0.783572 -0.498691 0.504812 0.367819 -0.063786 -0.052156 -0.582495 0.012780 0.795542 0.670133 0.917412 0.946203 0.836871 -0.702593 -0.474219 -0.207024 0.542901 0.541236 0.551431 -0.091043 -0.162654 0.272642 0.294192 0.484004 0.658984 -0.455729 0.560443 -0.639184 -0.760006 0.575414 0.983706 -0.845490 -0.150135 0.682232 0.267085 0.889621 -0.139294 0.891926 0.597118 -0.245642 -0.506417 0.657410 -0.916793 -0.542798 -0.812000 0.722859 -0.913018 0.909303 0.648464 0.738027 0.023948 0.500208 0.996599 -0.165085 -0.576795 -0.192585 -0.782191 -0.275885 -0.806247 -0.592148 -0.225820 0.647159 0.798413 0.931673 0.634131 -0.166321 0.634881 0.449927 -0.082952 -0.169799 0.185411 0.206720 0.335037 0.974860 0.478194 -0.991596 0.250923 -0.739645 0.792191 0.355665 -0.343341 -0.526334 -0.097081 0.361487 -0.482341 -0.708014 0.407699 0.197559 0.381933 -0.852576 0.759291 -0.594072 -0.566522 0.465197 0.571245 0.916430 0.430921 0.480954 -0.609542 -0.569106 -0.959084 0.678320 0.521654 -0.562751 -0.159604 -0.458597 0.353702 0.671690 -0.899016 0.245628 0.267384 -0.084535 -0.780957 0.450469 -0.964965 -0.174328 0.076349 -0.795485 0.280709 -0.128455 -0.944399 -0.515044 -0.340200 0.263685 -0.248463 0.089281 0.537702 -0.842118 0.525442 -0.903471 -0.630812 -0.059340 0.676961 -0.323095 -0.263301 0.707596 0.573425 -0.442873 0.630595 0.406664 0.795784 0.740752 -0.174370 -0.636038 0.108887 0.061861 -0.298063 0.450583 0.943980 -0.529346 -0.718303 -0.524507 0.603120 0.644601 -0.197969 0.735777 0.204741 -0.922680 0.510262 -0.024576 0.957203 -0.289495 0.459769 -0.669914 0.757757 -0.379345 0.355168 -0.699258 -0.424299 0.813414 -0.955662 0.183429 0.889193 0.658662 0.136218 -0.577315 -0.939242 0.164234 0.283293 -0.689883 -0.863473 -0.384950 0.148613 -0.262782 -0.579933 -0.930058 0.513901 -0.869545 -0.449304 0.541188 -0.251585 -0.394258 -0.291133 0.934506 0.244565 0.395650 -0.306818 -0.691139 0.032018 0.130921 0.392835 0.377974 0.615334 -0.082319 0.472263 -0.676405 -0.344319 -0.975077 -0.118724 0.610987 0.866194 0.126979 0.134120 0.151305 0.975573 0.456906 -0.777651 0.021651 -0.111028 -0.050450 0.089973 0.170363 -0.703014 0.451244 0.050913 -0.309622 0.175586 -0.934086 0.817904 0.515143 0.015935 -0.181714 -0.073581 -0.674934 0.386569 -0.930661 0.385515 -0.656542 -0.498549 0.894061 0.486859 0.640184 -0.422582 -0.334723 0.311101 0.670069 -0.151372 -0.117221 -0.137138 -0.881908 -0.233695 0.288572 0.036022 -0.582229 0.475658 0.377701 0.026640 -0.265960 0.004596 -0.752554 -0.168821 0.626469 -0.941746 0.081111 -0.768105 0.465774 0.264063 0.099365 0.021563 0.413639 0.024183 0.441896 0.951295 0.410596 0.892947 -0.235601 0.260330 -0.631286 -0.022514 -0.391719 0.373678 0.400470 0.698874 -0.019480 0.601021 -0.641524 -0.100347 -0.531978 -0.953052 0.055378 0.743600 -0.322133 -0.082564 0.349222 -0.624728 0.193474 -0.285676 0.641866 -0.153799 -0.896252 0.690027 -0.722625 0.848022 0.712122 0.640272 -0.955498 0.949816 -0.448833 0.471899 -0.801651 0.658093 0.564350 -0.975273 0.594765 0.210688 -0.965544 0.094381 0.253648 -0.941892 -0.376025 0.154081 -0.358761 0.303244 0.628576 0.471260 0.474110 0.373134 -0.740495 0.508457 -0.367644 -0.993562 -0.791805 0.138797 0.767622 -0.576413 0.232253 -0.518072 0.756422 -0.822648 -0.246077 0.187339 0.607591 -0.220486 0.295746 0.595652 -0.873864 0.961872 0.183788 0.923167 -0.337435 0.727524 -0.498605 -0.054542 -0.682291 0.741502 0.429528 -0.920501 -0.856037 0.580316 -0.628245 -0.917387 -0.524284 0.365287 -0.614488 0.302831 -0.311207 -0.453166 -0.365976 -0.954545 0.960282 -0.543326 0.324355 -0.557574 0.857805 -0.876505 0.572474 -0.423020 0.302479 -0.230775 -0.637682 0.481318 -0.485627 0.067058 -0.951415 -0.435654 -0.032554 0.869693 0.935335 0.174140 0.770970 -0.308637 0.738562 -0.986887 -0.616313 -0.376066 -0.548461 0.020149 0.635892 -0.559167 0.087427 -0.616210 -0.633885 0.289331 0.787290 -0.010141 -0.441050 -0.721860 -0.296462 -0.632452 0.386456 -0.835302 -0.913684 -0.278962 -0.511954 -0.406370 0.141356 -0.231707 -0.297808 0.733360 -0.421441 0.837487 -0.358512 0.494218 0.324900 0.587664 0.867855 0.032165 0.590029 0.618172 -0.384949 0.155985 -0.354186 -0.799719 -0.881634 0.380638 -0.609992 -0.133276 0.031751 -0.354371 0.086450 0.967824 0.224729 -0.986079 0.962578 0.054042 0.286443 0.254738 -0.617387 -0.429622 -0.656638 -0.112878 0.857577 -0.711739 -0.205227 0.744892 -0.608168 0.512203 0.602650 0.737588 0.648519 -0.343658 0.141858 0.206293 -0.831522 0.611484 -0.781708 -0.165497 0.488228 -0.352810 0.319391 0.007617 0.013613 0.797010 -0.648426 -0.093917 -0.463984 -0.182191 -0.090741 0.908724 0.917830 -0.035500 -0.651611 0.370086 0.031583 0.813125 0.193241 -0.199174 0.486283 0.960891 -0.308219 -0.239369 0.925844 0.658130 -0.800900 -0.734503 -0.791184 0.570988 0.588479 0.560228 -0.239799 -0.297895 -0.720326 -0.513287 -0.806268 -0.951315 -0.757993 0.407713 0.426559 -0.822386 0.159152 0.862151 0.175295 0.179270 0.990668 0.152861 -0.870736 -0.454944 -0.248259 -0.486495 -0.523078 0.620870 0.965761 -0.450689 -0.731773 -0.910675 0.283344 0.157572 0.311303 0.070548 -0.297802 0.839219 0.758681 -0.844925 -0.656827 0.703871 -0.033146 0.913143 -0.807985 0.195350 -0.753860 -0.132728 -0.759101 -0.206743 -0.731819 0.322356 -0.156819 0.347207 -0.484325 -0.053184 0.139856 0.560920 -0.625842 -0.534104 -0.691244 0.267282 0.201224 -0.028845 -0.805673 -0.937961 -0.313407 0.569931 0.834047 -0.173686 0.862589 -0.468169 -0.509085 -0.185839 0.600064 -0.716120 0.173510 0.185555 0.623690 0.360923 0.032882 0.646535 -0.023456 0.102681 -0.233087 0.509513 -0.611099 -0.744445 0.119245 0.144607 0.403535 0.215120 -0.472033 0.540206 -0.765052 -0.233409 -0.897647 -0.753549 -0.905496 -0.670400 0.587951 -0.308707 -0.439776 0.683730 -0.553623 -0.739929 0.016274 -0.474945 -0.401525 -0.430938 -0.779436 0.021378 -0.706672 0.960353 0.644780 0.812898 0.375178 -0.382968 -0.547728 0.328632 -0.673922 -0.602582 0.398002 -0.778535 -0.835302 -0.925016 -0.745679 -0.628460 -0.531761 0.694396 0.715391 -0.418413 -0.262750 -0.042637 -0.597826 0.330480 0.379311 -0.912922 0.527248 -0.544593 -0.973715 0.765721 -0.528802 0.429188 -0.631575 -0.873877 0.753393 0.280187 -0.891406 0.140351 0.873854 0.866590 0.770972 -0.280619 -0.356156 0.080166 -0.648841 0.930644 -0.674574 0.439875 0.971579 -0.678034 0.287994 0.321228 0.876727 -0.854730 0.555446 -0.617488 -0.114358 -0.007065 -0.736955 -0.004422 -0.318334 -0.235513 -0.267373 0.257420 0.450697 0.871098 0.546380 -0.997398 0.732077 0.011057 -0.159113 -0.213940 0.310470 0.075935 0.247859 -0.239189 -0.053616 0.878238 0.539569 0.532012 -0.472508 0.555196 -0.824161 0.324516 0.132255 0.817136 -0.394531 -0.880985 -0.716728 -0.052690 0.439282 -0.980871 0.504447 0.246393 -0.870933 0.222668 0.382221 -0.013031 0.992118 0.535382 0.163655 0.545192 -0.950460 -0.386510 -0.067298 0.923653 -0.171636 -0.690461 -0.573586 -0.266397 0.670208 0.187741 -0.629252 0.159138 0.634920 -0.892846 -0.065655 0.542737 -0.211110 -0.131752 -0.348331 -0.406448 0.821658 -0.396619 0.021552 0.230815 -0.698548 -0.498430 0.884213 0.967930 0.006355 0.802165 -0.019456 -0.995326 -0.448563 0.999751 0.807226 -0.950015 -0.905628 -0.883275 0.804505 -0.691136 0.070023 0.878420 -0.387720 -0.416985 -0.266961 -0.816510 0.920919 -0.109340 0.319027 -0.106374 0.167365 0.896890 0.033915 0.009148 -0.256180 0.375443 0.076982 -0.160702 -0.911251 0.607556 -0.799136 0.917841 0.160550 0.369982 0.283407 -0.782612 0.632422 -0.879142 0.268462 0.047441 -0.664143 -0.251176 0.487672 0.305964 0.340051 -0.769532 0.479455 0.198659 0.863059 -0.571957 -0.877720 0.158251 -0.274235 0.936119 -0.648383 0.627925 -0.470708 0.807885 0.128226 -0.903435 -0.038497 0.983543 0.398955 -0.763811 0.626761 -0.023264 -0.995930 -0.603371 -0.858819 -0.165586 -0.999987 -0.789377 0.944955 -0.149569 0.192350 0.831893 -0.370378 -0.935288 0.607260 0.224874 -0.544784 -0.192091 -0.466595 -0.060605 -0.595361 -0.240478 0.291603 0.972224 0.173587 -0.518007 -0.141704 0.382545 -0.572765 -0.460587 0.906946 -0.956643 -0.292738 -0.040860 -0.732887 0.374692 -0.558722 -0.445810 -0.726356 0.134965 0.364993 0.435678 0.439494 0.569139 -0.481002 -0.201881 0.994307 -0.689511 -0.606697 -0.763294 -0.687769 0.667884 -0.877518 -0.446466 0.238244 0.170626 -0.296251 0.907462 -0.282740 -0.014441 -0.707114 -0.460877 0.041778 0.155812 0.725984 -0.391569 0.907183 -0.975979 0.720143 -0.550674 0.814513 -0.487481 0.900546 -0.519022 0.803667 -0.768505 -0.264888 0.029335 -0.966512 -0.174591 -0.345001 -0.438141 0.166041 0.652517 0.860170 0.871824 0.744762 -0.780816 0.832988 0.031577 0.709066 -0.733190 -0.727538 0.274129 -0.712298 0.410439 0.255414 0.740568 0.733118 -0.477645 0.221875 -0.951267 0.055746 0.917697 -0.265671 0.866431 0.099894 0.924590 -0.407779 0.459342 0.155168 -0.087977 -0.625731 -0.657075 0.542638 0.114125 0.096964 -0.331228 -0.948179 -0.039476 0.527098 0.944129 -0.029948 0.663567 0.568767 -0.725349 -0.941528 -0.268060 0.716233 -0.274739 0.460302 0.294738 -0.335117 -0.307879 -0.520422 -0.729302 0.624007 -0.307300 -0.796643 0.817123 -0.610695 0.045306 -0.535727 0.030666 -0.591815 -0.633597 -0.867853 0.002913 0.962337 0.004882 0.054841 -0.293227 -0.270741 -0.346311 -0.446705 0.225853 -0.096449 0.989587 -0.007572 0.741052 0.865749 0.647224 -0.108462 -0.922381 -0.459308 0.414905 -0.699535 0.917399 0.732684 0.222935 0.873007 0.632881 0.837205 0.898380 -0.929984 -0.235774 -0.655587 -0.454241 -0.431036 -0.423271 0.087432 -0.537335 -0.996056 -0.720232 -0.936680 -0.781922 0.229630 -0.606218 -0.697845 -0.683274 0.221461 0.098635 -0.235486 0.189796 -0.094224 0.379988 0.459904 -0.388214 -0.715488 0.796288 -0.785372 0.261137 0.936883 0.200825 -0.736107 0.257586 -0.743925 0.854334 0.785331 -0.940310 0.213861 0.369315 -0.922342 0.201551 -0.534265 0.613871 -0.665461 -0.401789 -0.863371 -0.679600 -0.030426 0.625713 0.366513 -0.014560 -0.717317 0.058239 0.814772 -0.130573 -0.538946 -0.058577 -0.502492 0.621493 -0.561696 -0.420997 0.305909 -0.582647 -0.548603 -0.365611 -0.817294 -0.263163 -0.984188 0.750207 0.723591 -0.603297 0.382459 -0.009311 -0.484677 0.038847 0.894343 -0.784699 -0.437429 0.133718 -0.601819 -0.772606 0.803754 0.700317 0.221040 -0.986217 0.655646 -0.550542 -0.960748 0.707252 0.780644 0.284779 0.284108 -0.992281 0.731806 -0.528519 -0.811597 -0.502605 0.722550 -0.101384 0.037258 0.189800 -0.028529 0.508182 -0.989021 -0.479007 -0.667297 0.739698 0.107137 0.651571 0.950914 0.012993 0.380332 0.238614 0.379190 -0.947371 -0.457704 -0.636887 -0.158209 0.987890 -0.531369 -0.724707 -0.156995 -0.615981 -0.795521 -0.317852 -0.138492 0.360559 -0.077133 -0.378517 0.265114 -0.220711 0.515734 -0.051416 -0.154799 0.286555 0.132394 -0.860483 -0.134353 -0.068888 0.206118 0.231805 -0.049685 0.944455 -0.537199 -0.696732 0.029622 -0.137862 0.957636 0.981844 -0.148948 0.634042 0.339625 0.071125 -0.606080 -0.393136 0.564579 0.876741 -0.610516 -0.939413 -0.709014 -0.395641 0.461811 -0.334505 -0.024218 0.976291 0.529535 -0.110248 -0.943754 0.319171 0.313758 -0.665483 -0.780538 -0.503091 0.556438 0.055089 -0.111974 0.055650 -0.691718 0.303575 0.187974 -0.713234 0.669889 0.825145 0.204463 0.414791 -0.600873 -0.872852 -0.024290 -0.240114 0.400350 0.688155 -0.181859 -0.495936 0.801182 -0.527914 -0.650293 0.532329 0.847779 0.628198 0.117814 0.097696 -0.027424 -0.917590 0.065126 0.564895 0.186995 0.831042 -0.683461 -0.925303 0.437081 0.021409 -0.186046 -0.882905 -0.977977 -0.863026 -0.882655 -0.779975 0.954231 -0.232672 -0.518413 -0.961759 -0.276799 -0.162632 0.641452 0.880920 -0.370793 0.087801 -0.332433 0.793139 0.291311 0.060911 -0.260757 -0.548265 -0.693590 0.826982 -0.906798 -0.556779 0.215711 -0.547383 0.135501 -0.633555 -0.166516 -0.632816 0.266470 0.560504 0.392520 -0.922622 -0.508593 0.078697 0.662815 -0.074356 0.291719 0.929521 0.459024 0.817021 -0.330211 0.140949 0.930144 0.927482 0.183988 0.281493 -0.946392 -0.006300 0.107604 0.498101 -0.419600 -0.225502 -0.005005 -0.115571 -0.395618 0.855775 -0.985325 -0.363509 0.506632 0.966732 -0.142727 -0.811863 -0.988711 0.736235 -0.094488 -0.052961 -0.121753 -0.309969 0.345989 -0.960189 0.103982 -0.374022 -0.185127 0.565002 -0.008682 0.078871 -0.410061 0.110711 0.727063 -0.251939 -0.332046 -0.695619 0.732610 0.975976 -0.779702 -0.451893 -0.971014 0.159977 0.740777 0.239614 -0.813196 0.608010 0.819239 0.957727 0.515703 -0.584001 0.698717 -0.655620 0.990916 0.329011 -0.306983 0.544979 -0.537864 0.111388 0.098746 -0.371918 -0.821318 0.111465 -0.602499 -0.202127 0.859479 -0.733743 -0.010519 -0.800992 -0.274639 0.150563 0.510843 -0.253682 0.361113 -0.780158 -0.113831 0.849771 0.105602 0.848125 0.441860 0.332980 0.399182 -0.949927 0.569377 -0.482494 0.717157 -0.735373 0.580189 -0.759569 -0.077081 0.500744 0.009461 -0.985183 0.023456 0.216638 -0.966052 -0.438992 -0.132125 -0.626473 0.873734 0.855510 0.557855 -0.135420 -0.011356 -0.854694 -0.839278 0.251972 0.890050 -0.923162 0.415652 -0.138870 0.018195 -0.196040 -0.841939 -0.463394 -0.265634 -0.505519 -0.255683 0.740486 -0.651992 -0.035390 -0.808047 -0.851615 0.910068 -0.479099 -0.221849 0.034884 0.221989 0.975867 -0.605453 0.149813 -0.091787 -0.660098 -0.265901 -0.997291 0.524644 -0.310871 -0.804907 -0.070424 0.384062 0.925890 -0.559154 0.293292 -0.646230 0.808510 0.622401 0.696703 -0.507704 -0.979465 0.135653 -0.083803 -0.470517 0.025102 -0.107051 0.798781 -0.894167 -0.257106 0.827516 0.054755 0.261383 -0.932531 0.951576 -0.870369 -0.293087 0.083102 0.695775 -0.101212 0.922230 -0.087659 0.716549 -0.962888 0.735568 0.694176 -0.986779 -0.790640 -0.293151 -0.983742 0.253723 0.314898 0.488147 0.279140 -0.485976 0.197297 -0.029447 -0.916089 -0.714196 0.507169 -0.016493 0.806068 -0.408952 0.745578 0.935992 -0.778001 0.143469 -0.723720 0.437788 -0.099212 0.550291 0.745074 0.463165 0.412556 -0.178340 0.643460 0.626565 0.685670 0.048777 -0.197407 0.174206 -0.116590 0.472570 0.479059 -0.457136 0.918813 0.482678 0.373288 -0.148996 -0.172982 0.689062 -0.927279 -0.773084 0.780411 0.369121 -0.175904 -0.424660 0.732403 -0.501672 0.404137 0.323189 -0.157135 -0.961967 0.226332 -0.035601 -0.350137 -0.749924 0.030928 -0.190406 -0.149226 -0.035546 0.581405 -0.333152 0.710008 -0.899803 -0.996025 -0.199434 0.113894 0.218638 0.644009 -0.143171 -0.277750 -0.146332 0.595181 -0.801335 -0.031418 -0.047959 -0.051161 0.137980 -0.973573 -0.837172 -0.345823 -0.239098 -0.517268 0.272201 0.886737 -0.612491 -0.132735 -0.880691 0.222180 0.183896 0.733907 0.771381 0.597289 0.630517 -0.895425 0.590895 -0.827912 -0.714118 -0.186861 -0.568861 -0.845028 -0.378738 0.548951 0.217496 -0.536982 0.941043 0.108929 0.771948 0.125455 0.521465 0.270449 -0.557896 -0.551328 -0.166478 -0.001118 -0.792498 0.488480 -0.120732 0.852178 0.563172 -0.762150 0.549572 0.655744 -0.905878 0.916203 0.632079 -0.646033 0.123118 -0.756640 -0.848451 0.078868 -0.464610 -0.707672 0.157967 0.956642 0.280309 -0.841148 0.831635 -0.711101 0.524349 0.738622 0.019505 -0.172136 0.912315 -0.727997 0.559207 0.597662 0.908032 -0.698631 0.108617 -0.474396 0.821475 0.538575 -0.176284 -0.813357 -0.090209 -0.148601 0.466847 0.296221 0.583229 0.329639 0.242494 -0.408871 0.100135 0.970213 0.368744 -0.526299 0.498662 -0.982079 0.194784 -0.259972 0.649811 -0.629177 -0.581881 0.329672 0.801703 0.229167 -0.388383 0.439439 -0.346609 0.545483 -0.069420 -0.740330 -0.718426 -0.583171 0.640252 0.709440 -0.445970 0.576114 0.742451 0.367381 0.577408 0.490240 -0.531531 0.557038 0.138427 0.543514 0.840660 0.965250 0.956912 0.824456 0.629404 0.393808 0.728496 -0.162264 0.821388 -0.935428 0.259772 -0.008529 0.661244 -0.464561 0.131612 0.007292 0.560183 -0.996843 0.051858 -0.423142 0.259453 0.618857 -0.873409 0.616280 -0.176350 0.085222 0.333790 0.003196 -0.283519 0.897365 0.019019 -0.353290 0.253159 0.849343 0.899504 -0.044156 -0.136130 0.058612 -0.903596 -0.744902 0.427176 -0.455092 -0.731331 0.519461 0.576349 0.693515 -0.095653 0.368265 -0.577159 -0.319396 -0.087336 0.142477 0.607178 0.838182 -0.673163 0.145712 0.985731 -0.825265 -0.221913 0.300332 -0.316661 -0.123555 -0.583101 -0.183101 0.626660 0.280590 -0.128452 -0.900008 -0.432709 -0.546812 -0.272767 -0.392692 0.025785 -0.625235 -0.321444 -0.505345 0.674635 0.592971 0.070323 -0.087596 -0.230084 0.971093 -0.832907 -0.667268 -0.778761 -0.635834 -0.464165 0.776231 0.115577 0.501148 0.799760 -0.432510 0.801888 -0.673203 -0.521063 0.492332 0.623706 0.621447 0.662774 -0.763500 -0.136678 0.858480 0.480308 0.530698 -0.562404 -0.325687 0.176365 0.161762 0.735729 -0.610438 0.364382 0.171113 -0.105017 0.987289 -0.640424 0.386633 0.138907 0.602718 -0.122000 -0.454220 -0.069740 -0.112819 -0.148475 0.587355 -0.329309 -0.688354 0.830983 0.328867 -0.731091 0.556631 -0.707940 -0.345873 0.905699 0.085546 -0.232566 -0.730479 0.845943 -0.240944 0.460006 -0.683161 0.107037 0.971782 0.732369 0.931480 -0.614783 -0.659087 0.731110 -0.227438 -0.549615 0.616936 0.836150 -0.830006 0.093861 -0.478874 -0.438222 0.806366 0.592583 -0.452455 -0.415595 -0.907393 -0.560256 -0.228187 0.864315 0.544480 -0.930002 -0.543460 0.067810 -0.321878 0.197677 0.365558 -0.074020 -0.049377 0.116465 -0.579131 0.546809 0.217403 -0.105621 0.822165 0.134202 -0.473994 -0.411940 0.531750 -0.881979 0.586902 0.070050 -0.663612 0.677491 0.584049 0.104158 0.591155 -0.463334 0.753422 0.766800 -0.397890 0.656863 -0.095543 0.202343 0.777341 0.765439 0.736480 0.013495 0.816657 -0.444186 0.557776 0.541234 0.527123 -0.647413 0.927215 -0.294668 -0.480847 0.396771 0.538406 0.990460 0.665806 0.204682 0.082541 -0.731838 0.005341 -0.226465 -0.201973 -0.566569 -0.322902 0.979055 0.971695 -0.720064 -0.114319 0.638313 0.132131 0.721657 0.888845 0.816418 -0.454950 -0.349438 0.992980 -0.988684 -0.808035 -0.649084 0.844950 -0.924572 0.726265 0.339409 0.447813 0.396445 -0.944310 0.982203 -0.109026 -0.393337 -0.809025 0.723935 -0.818280 -0.830679 0.776696 -0.066663 -0.402275 0.956101 -0.815732 -0.004661 -0.341980 0.346074 0.458012 -0.196504 -0.644798 0.887978 0.250559 -0.852446 0.939686 -0.692446 0.053820 0.557351 -0.607481 0.069904 0.872819 -0.524386 0.651939 -0.867068 -0.814303 0.001912 0.143219 -0.911047 0.038073 -0.103535 -0.112491 -0.644424 -0.832378 0.225632 0.189924 0.046038 -0.244164 0.336154 -0.253937 0.075393 -0.872945 0.411735 0.037530 0.766395 0.797692 0.810020 0.014023 -0.312654 -0.779745 0.831743 -0.887839 0.093626 -0.423098 0.988839 -0.585439 0.520198 0.973975 -0.400892 0.205551 0.703842 -0.520651 -0.575681 0.536495 0.878632 -0.825079 0.899556 0.831755 -0.689957 -0.104938 0.301868 -0.501226 -0.098609 0.684265 0.450051 0.014609 -0.464123 -0.520977 -0.054123 0.347871 0.664307 0.999875 0.898902 -0.160756 0.172782 -0.049017 0.176375 0.341002 -0.785847 0.262651 0.369703 -0.393616 0.498269 0.403089 0.719321 -0.367081 0.475609 -0.432704 -0.448247 0.314137 -0.299264 0.265547 -0.954647 -0.749451 -0.025448 0.296879 -0.348093 -0.407346 -0.262432 -0.700295 0.148662 0.568253 0.628563 0.265474 -0.180491 0.486792 -0.487063 -0.073284 0.319511 0.015300 -0.860670 0.719102 -0.047384 -0.380038 0.698166 0.079117 -0.282653 -0.542880 -0.182960 0.985434 0.191483 0.248393 0.745952 -0.780560 -0.875563 0.410025 -0.713404 -0.189052 0.597287 0.602687 -0.643800 -0.341631 0.212219 0.765585 -0.805727 0.140484 -0.887961 0.043243 0.781013 0.484109 0.418399 0.028272 -0.829496 0.662374 0.511567 -0.085744 0.895699 0.016050 -0.242324 -0.746603 -0.164883 0.806560 -0.143695 0.909805 -0.906555 -0.463979 -0.097980 -0.744141 -0.778010 -0.006751 0.539974 -0.650766 0.570156 0.615936 0.042452 -0.511199 0.283180 -0.593553 0.148015 -0.312310 -0.992176 0.499924 0.225503 0.031583 0.817899 0.431292 0.720073 0.262864 -0.051094 -0.743115 0.457847 -0.966679 -0.971062 -0.638234 -0.798236 0.052803 -0.540151 -0.322534 -0.828174 0.877319 -0.896771 -0.024432 -0.629740 -0.032503 -0.284871 0.173361 -0.316535 -0.007179 -0.660583 -0.414294 0.960735 -0.934138 -0.061122 0.716930 -0.551433 0.070069 -0.358618 0.705095 0.523455 -0.300200 0.530397 0.376158 0.082116 0.124816 -0.216955 -0.360982 0.980416 -0.141638 -0.503121 0.040586 0.136397 0.430030 -0.491845 -0.445870 0.265686 -0.616769 -0.044453 0.885188 -0.653013 0.815532 0.642876 0.811234 0.410199 0.212421 0.160743 -0.397853 -0.714695 0.125769 -0.201495 -0.534366 0.909069 0.721223 -0.397912 0.295692 -0.301391 0.527934 0.991053 0.622967 0.207949 0.998546 0.567703 -0.614723 0.350014 0.687362 0.500385 -0.036206 -0.506541 0.557798 0.914631 0.194995 -0.717491 -0.874991 0.030229 0.061932 0.895411 -0.825952 0.221983 0.863872 -0.911201 -0.562348 0.624825 -0.559265 0.428143 -0.205749 -0.029455 0.957562 -1.354783 0.014847 -0.464223 -0.188212 0.713944 -0.742706 -0.655997 0.660824 0.461357 0.018741 0.979877 0.796241 0.418139 -0.339562 0.983244 -0.623101 -0.457858 0.781194 -0.474517 0.792098 0.790109 -0.636330 -0.792565 -0.634870 -0.265616 -0.202137 0.675137 -0.974804 0.461722 0.153801 0.925851 0.785888 0.421953 -0.233223 0.213570 -0.536629 0.878236 0.516544 -0.452161 0.536634 -0.793492 -0.225374 0.146589 -0.273005 -0.402861 -0.884557 -0.747485 -0.979840 -0.175657 -0.260766 -0.692020 -0.779683 -0.131576 0.607579 -0.425396 0.373376 -0.662894 0.748382 0.050062 -0.605629 -0.798975 -0.373452 -0.610973 -0.628007 -0.905935 -0.041744 0.406810 -0.737470 -0.653029 0.533501 0.547142 -0.182157 0.494045 -0.587746 -0.252496 0.302357 -0.283632 -0.999512 -0.794694 -0.415231 -0.779315 0.054011 -0.238487 -0.247788 -0.577558 0.988730 -0.420786 -0.143424 -0.518922 0.473971 0.026240 -0.977025 -0.859510 0.217296 0.094955 -0.083009 0.869733 -0.395025 0.810369 -0.126452 0.713951 -0.631070 -0.400987 0.615139 0.646838 -0.589385 0.213711 -0.159354 -0.255540 -0.855629 -0.557289 -0.349468 0.497273 -0.329109 0.662068 -0.631140 0.433667 0.638485 -0.985637 0.405972 -0.827940 0.817802 0.801106 0.188029 0.207882 -0.121673 -0.962065 0.573090 -0.077969 -0.418397 -0.003791 0.279697 0.871074 0.146045 0.581663 0.008636 -0.860491 -0.268841 -0.414239 -0.115738 0.787938 0.878107 0.349798 -0.951884 -0.308026 -0.999816 0.099414 0.857936 -0.669094 0.542545 0.546894 -0.345112 -0.296998 0.362904 -0.678768 -0.049964 0.259732 -0.689501 -0.441702 0.316355 0.983634 -0.070035 0.921381 -0.348900 0.032843 -0.003413 0.630577 0.103094 0.708057 0.321515 -0.295687 0.388357 -0.880032 -0.704712 -0.102701 -0.098407 0.075932 0.192072 0.159457 -0.008352 -0.379903 0.974700 -0.209068 0.193467 -0.392506 -0.848942 -0.166447 0.529447 0.417236 0.484482 0.689011 0.208737 0.244332 0.486473 0.146458 -0.482311 -0.205076 -0.710959 0.906774 0.156711 -0.164365 -0.485477 0.587055 0.637913 -0.589171 -0.193876 -0.473067 -0.834178 -0.023974 -0.936575 0.982486 0.634740 0.080039 -0.777504 0.493798 -0.743736 0.025093 -0.258256 -0.511286 0.811009 0.622346 -0.235511 -0.236725 -0.640602 -0.598861 0.945015 0.862881 0.446776 0.958794 0.445289 -0.034388 0.043441 0.104606 0.110449 0.308154 -0.854804 -0.697853 -0.815805 0.760557 0.678109 0.983180 0.309398 0.050915 -0.273543 0.564789 0.406449 -0.804988 0.572108 -0.582216 0.693966 -0.507236 0.881497 -0.679180 -0.986083 0.894990 0.093704 0.878881 -0.647801 0.404750 0.638845 -0.933944 -0.788573 0.453816 -0.719589 -0.129168 -0.934898 -0.824898 -0.052543 0.907970 0.246719 0.602438 -0.825194 0.964298 0.956730 -0.240397 -0.357660 0.816004 0.584934 0.990962 -0.909733 0.110595 0.763458 -0.556833 -0.684963 -0.179118 -0.436188 0.991963 -0.085732 -0.893897 0.277947 -0.548843 -0.396457 0.749527 -0.694675 0.603767 -0.491147 -0.701980 -0.180165 -0.028128 -0.754394 0.894355 -0.570131 -0.197429 -0.190769 -0.249802 -0.426026 -0.211193 0.475515 -0.023883 0.604046 0.196082 -0.457586 -0.641491 0.453181 0.609626 -0.011034 0.544609 -0.760767 -0.214720 -0.805037 -0.264813 -0.707129 -0.716768 -0.717744 0.884197 0.701270 0.250837 -0.182373 0.853249 0.559361 -0.825960 0.095587 0.528593 0.062845 0.238022 0.433941 -0.750124 0.657591 0.129073 -0.666409 -0.332708 0.181201 -0.559562 -0.554562 -0.527797 -0.691462 0.599172 0.281450 0.335116 0.298597 0.516605 0.581390 -0.583064 0.445357 -0.888952 -0.612038 -0.522859 0.309156 -0.010047 -0.864130 0.563998 -0.891303 -0.134671 0.591588 0.813233 0.011948 0.815111 -0.437735 0.995847 -0.792055 -0.065732 -0.752151 0.598766 -0.543519 -0.929958 0.188587 -0.413639 -0.022461 0.496417 -0.718124 0.492433 0.315845 0.406622 0.089485 -0.018476 -0.532277 0.024156 -0.003221 -0.128868 0.113502 -0.374656 -0.839461 -0.824433 -0.246789 0.225579 -0.695505 0.649914 -0.896685 -0.587871 -0.342575 0.346807 0.781444 -0.269143 0.517952 -0.779695 -0.326343 -0.841817 -0.419444 0.406193 0.891636 -0.269929 -0.702257 -0.832973 0.230669 0.859139 -0.443674 -0.823842 -0.309538 -0.403287 -0.039439 -0.856481 -0.876602 0.956439 0.865257 0.381921 0.938085 0.386534 0.474770 -0.540251 0.007131 -0.149071 0.567035 0.157474 0.660690 0.224878 -0.482674 -0.308204 0.017242 -0.213158 -0.554565 -0.580375 -0.362323 0.442617 -0.930136 -0.795185 -0.669217 0.470873 -0.031778 -0.096318 -0.821518 0.744092 -0.051226 -0.948054 0.053718 0.834689 0.609971 -0.217565 -0.607718 0.078988 -0.454564 0.142457 0.272867 0.070024 0.889894 0.446677 -0.699583 0.114132 0.220260 -0.084914 0.858067 -0.465298 -0.257843 0.427150 -0.889064 -0.501684 0.204345 0.426534 0.750200 0.617466 -0.255705 0.374290 0.694900 -0.808416 0.952280 0.969347 -0.190260 0.303308 -0.301951 -0.889990 -0.058612 0.913661 -0.097502 -0.718732 0.279162 -0.130002 -0.937947 -0.076972 0.326511 -0.329170 -0.353200 -0.239169 0.288850 0.708771 0.317257 0.144485 0.356267 -0.228729 -0.245845 0.086796 0.784382 -0.891123 0.889376 -0.259376 0.664887 0.753722 -0.186491 -0.359811 0.659196 -0.896375 0.631112 -0.894703 0.733491 -0.212683 -0.567943 0.575518 0.734450 -0.105358 -0.750771 -0.200557 -0.767441 -0.378316 -0.352736 -0.428640 -0.155490 0.685794 0.141314 -0.938992 0.369201 -0.830818 0.448837 -0.403293 -0.138099 0.978162 -0.037293 -0.787124 0.801463 0.182418 -0.106347 0.617913 -0.735722 0.721103 -0.420058 0.088143 -0.582118 0.341448 0.723319 0.824240 -0.991810 0.648461 0.679549 -0.826405 0.617241 -0.037187 0.998117 -0.639835 0.290042 0.740645 0.021370 -0.831565 -0.119671 0.695048 -0.325907 0.475603 -0.533664 0.714286 -0.994519 -0.885966 -0.431816 0.471850 0.375000 0.619704 -0.626756 0.113549 0.415854 -0.733632 -0.153259 0.168437 0.913161 -0.503931 0.438419 0.512907 0.424897 -0.751927 0.357646 0.951521 0.216607 0.508548 -0.833785 0.571385 -0.727129 -0.856447 -0.312587 0.358679 0.318407 -0.537672 -0.658184 -0.100744 0.792082 0.524435 0.181914 -0.570832 0.027751 0.417743 -0.990677 -0.301405 0.283517 -0.934071 -0.931245 0.564329 0.677722 0.472314 0.181913 -0.595094 0.260608 0.041244 -0.806086 0.120159 -0.489961 -0.772381 0.588133 0.745471 -0.870255 -0.384126 -0.008841 -0.587667 -0.912934 0.310176 -0.876685 -0.442932 -0.354338 0.639101 -0.622804 0.538950 0.134336 -0.211719 -0.361974 0.294973 -0.392145 -0.780986 -0.025468 -0.040938 -0.045181 0.644527 0.563273 0.934670 0.994344 -0.065561 0.111925 -0.884588 0.735349 -0.996881 -0.575347 0.138517 0.048932 0.397284 -0.839815 -0.772912 -0.331893 -0.133187 -0.480174 -0.285485 -0.140009 0.869308 0.456181 -0.962228 -0.162273 0.675849 0.987864 -0.976799 0.933618 -0.678302 -0.229589 -0.710071 -0.160983 0.364221 -0.545936 0.447225 0.510003 -0.372124 -0.284111 0.954026 0.311485 -0.870296 0.929752 0.336348 -0.995053 0.147300 -0.327994 -0.590632 -0.750346 0.933663 0.081795 0.720395 -0.321179 -0.060170 0.718318 0.770240 -0.579648 -0.148694 0.894811 -0.910057 0.675792 0.029540 0.484118 0.573126 0.530344 -0.512276 0.175482 -0.680149 0.737369 0.967762 -0.828497 -0.552381 0.131949 -0.328811 -0.331764 0.041197 0.400430 0.029970 -0.291157 0.525344 -0.551000 -0.650594 -0.535715 0.237689 0.845757 0.638386 -0.654563 0.761877 0.870734 0.429070 -0.615669 0.455300 0.225742 0.050643 -0.844831 0.921188 0.405019 -0.843243 -0.378058 -0.015440 0.498171 0.758018 0.002405 0.416615 0.052480 0.025061 -0.793376 -0.276013 -0.947291 0.878226 0.337398 0.647869 0.730809 0.704988 0.732562 0.170814 0.875729 0.383770 0.020714 0.132127 0.657606 0.383587 0.942462 -0.047630 -0.516509 -0.969001 -0.001823 -0.636878 -0.010869 -0.681710 0.494426 -0.177324 -0.280984 -0.490339 0.765573 -0.010692 0.295644 0.889018 -0.267022 0.154104 0.018720 0.633842 0.984476 0.084423 0.903505 -0.787391 0.315435 -0.488519 -0.543398 -0.885805 0.280397 0.629255 -0.111804 0.905622 0.793835 -0.018348 -0.366486 0.476269 0.657590 0.122139 0.791111 0.200977 -0.182816 -0.591334 -0.552401 -0.209327 -0.165601 0.742556 0.143544 0.552276 0.095691 0.281308 -0.049500 0.049927 -0.869015 0.472694 0.567369 -0.229126 -0.913066 0.097379 0.655247 0.730692 0.741962 0.161464 -0.267309 -0.667660 0.639748 0.239680 0.307399 0.451592 -0.099518 -0.599084 -0.805710 0.430216 0.640956 0.552270 0.008897 -0.472762 0.287477 -0.380036 0.742323 0.215318 0.842575 -0.838836 -0.310207 0.353163 -0.382793 0.403126 -0.663726 0.756759 0.843158 0.957196 -0.406922 0.866795 0.227832 -0.828822 -0.018975 -0.908464 -0.556679 -0.110510 0.650141 0.912127 0.118258 -0.434054 0.854609 -0.583728 -0.715688 -0.560943 0.238875 0.779707 0.541693 0.235596 -0.344511 -0.189163 0.731668 -0.849100 -0.818083 0.474522 -0.710766 0.150585 0.886838 -0.915264 -0.847998 -0.310520 -0.910211 0.087001 0.223054 0.866853 -0.800211 0.849087 0.605989 0.851419 -0.193465 0.430840 -0.878972 -0.878685 -0.061101 -0.923307 -0.022387 -0.264481 0.870646 0.949464 -0.360668 0.246718 0.583702 0.273341 0.045157 0.948314 0.314836 -0.545952 0.191193 -0.617198 0.755366 -0.564526 0.006621 -0.719336 0.112129 0.549404 -0.166272 -0.538451 0.260337 -0.515190 -0.790965 0.257630 -0.010265 -0.530330 0.739444 -0.159643 0.880231 0.041360 -0.865929 0.337840 0.069411 0.595323 -0.413713 0.727762 -0.509896 0.179185 -0.429834 -0.218763 -0.747925 -0.371189 -0.567384 -0.016732 0.784989 -0.682971 -0.690491 0.919312 0.874158 -0.021038 0.411094 -0.749633 0.917619 0.426057 0.746689 -0.396974 0.051238 -0.844719 0.803837 0.083033 -0.471778 0.828477 0.209054 -0.431640 -0.565463 0.267777 0.525632 0.297984 0.216806 -0.146243 0.099925 -0.556960 -0.818541 0.778305 0.974507 0.544898 0.106608 -0.233518 -0.743058 -0.574767 -0.106838 0.380393 -0.730027 0.428912 0.721988 0.456681 -0.570341 0.283366 0.527415 0.261020 0.955654 -0.327168 -0.712210 -0.106010 0.295459 -0.225767 -0.465174 -0.185656 -0.312683 0.732093 0.293746 0.985795 0.250298 0.753235 -0.371449 -0.946331 -0.987652 0.539957 -0.935584 -0.353030 0.627051 0.846851 -0.976503 -0.079529 -0.641227 0.903239 0.732889 -0.336045 0.092320 -0.375109 -0.459293 0.669653 0.855469 -0.129363 -0.205522 -0.203487 -0.005478 -0.064861 -0.116261 -0.003610 -0.676221 0.756848 0.347324 -0.532225 0.891162 -0.247050 -0.171275 -0.624884 -0.420095 -0.540800 0.778151 0.386546 0.681417 0.583507 -0.989942 0.049013 -0.246828 -0.444170 0.826737 0.968862 -0.340375 -0.676979 0.006096 0.456730 0.254433 0.261631 -0.761311 0.646522 0.098201 0.467724 -0.962374 -0.626687 -0.732109 -0.549621 0.517760 -0.010702 0.139351 0.079389 0.294693 0.910969 0.656989 0.018891 -0.496510 -0.843972 -0.645719 -0.604523 -0.221053 0.766531 -0.921360 0.709148 0.651545 0.516394 -0.965004 -0.827156 -0.016711 -0.857831 0.438604 -0.374797 0.794033 -0.694661 0.838307 -0.566712 -0.721685 0.646989 -0.059558 -0.985498 0.727414 -0.352296 0.957261 0.685937 0.540456 -0.556187 0.158299 0.532523 0.114396 0.659440 -0.799176 0.241659 -0.441270 -0.418645 -0.170691 -0.806390 0.996642 0.560107 -0.285346 0.196569 -0.260966 -0.063667 -0.048042 0.561991 -0.621155 0.252124 -0.557849 0.234174 -0.244834 -0.917351 0.086643 0.205030 -0.063037 0.532129 -0.500654 -0.499082 -0.063234 -0.774746 0.837721 -0.415869 0.496524 -0.915570 0.012722 -0.177558 -0.212294 -0.025928 0.223400 0.689641 0.788016 0.186379 0.469539 -0.455015 0.565326 -0.562875 -0.245081 0.930072 -0.285293 -0.911663 -0.319234 0.629165 0.382590 0.192090 0.464372 0.703874 0.003450 -0.016160 0.402502 0.843367 0.465742 -0.279573 -0.778475 0.164673 -0.341825 0.946338 -0.901104 -0.861837 -0.890367 -0.393995 0.126462 -0.560976 -0.331323 -0.537386 0.160339 0.821584 0.365641 -0.679642 -0.750891 -0.216912 0.362973 0.488895 0.861876 -0.448618 0.075582 0.299051 0.151119 -0.147806 -0.169737 -0.772054 0.092402 -0.991204 0.841634 -0.663645 0.123697 0.970160 -0.528440 0.507820 0.926947 -0.798602 -0.110244 -0.865256 -0.356814 -0.964860 -0.404660 0.874853 -0.342452 0.413939 -0.931800 -0.769023 -0.974604 -0.165880 0.049787 0.770396 0.045034 0.890089 -0.281916 -0.167214 -0.372401 -0.941896 -0.445210 -0.639966 0.090191 -0.163922 0.966197 0.872053 0.599703 -0.790963 0.279278 -0.176743 -0.526009 -0.634291 -0.525464 0.521340 0.166768 0.873878 -0.728302 -0.570039 -0.637931 0.291972 -0.822091 -0.883438 0.054068 0.720901 0.180433 0.545258 0.156501 0.318245 0.749473 0.398312 0.426423 0.896854 -0.583069 0.359157 0.353850 -0.849057 -0.095412 0.410803 0.373475 0.986467 -0.451994 -0.661917 -0.842226 0.699706 -0.038689 -0.240374 0.037885 0.735817 0.877918 -0.831371 -0.853555 0.307872 0.398362 -0.734042 0.955388 -0.800157 -0.241191 0.295407 0.902861 0.380569 0.228982 0.498929 -0.506586 -0.184142 -0.867685 0.810451 -0.749998 0.790903 0.699365 0.232315 0.520252 -0.125225 -0.664552 0.866925 0.416727 -0.077159 -0.811253 -0.722268 0.849815 0.832640 0.182493 -0.846130 -0.904365 0.344469 -0.517354 0.826045 -0.665756 0.636074 0.495888 0.389180 0.943731 -0.720288 0.111524 0.381510 0.043977 -0.883361 -0.652656 0.814240 0.937505 0.644958 -0.188585 0.447949 0.684124 0.077315 -0.559698 -0.840864 -0.398772 -0.163024 0.053433 0.053920 0.225933 -0.751049 -0.875404 -0.919055 -0.549369 0.750464 -0.954891 -0.856667 -0.004363 0.668634 -0.268126 -0.391402 -0.291744 0.661473 -0.623832 -0.751159 -0.725683 -0.556776 0.262779 0.520875 0.345909 -0.311662 -0.104350 0.187731 -0.807208 -0.747089 -0.318896 0.320454 -0.127099 -0.151241 0.088406 -0.157684 -0.190007 0.546484 0.751420 -0.886087 -0.468488 0.130165 -0.309206 -0.821426 0.289518 -0.073428 -0.098712 0.943368 -0.815543 -0.833260 -0.599468 0.734733 0.664470 -0.256560 -0.003314 0.307361 -0.188871 -0.362873 -0.805021 0.019394 -0.043890 0.334902 0.703147 -0.206343 -0.014837 0.629030 0.110955 0.822931 0.997184 -0.331518 0.181722 0.204172 -0.485533 -0.356163 -0.033238 -0.631391 0.209525 -0.514985 0.642604 0.252969 -0.354523 -0.461753 -0.683693 -0.823336 0.200167 0.212215 0.694647 0.935761 -0.666157 -0.092757 -0.958997 0.134948 0.071708 -0.811395 0.885650 -0.885905 0.599543 0.521571 0.044359 -0.465911 -0.560210 0.555123 -0.044621 0.058757 -0.472898 -0.001736 0.816933 0.185581 -0.948270 0.425632 -0.400837 -0.860450 0.423479 -0.581500 0.731063 0.978608 -0.532071 -0.520580 0.614867 0.064828 -0.439755 -0.967011 -0.548289 0.903179 -0.262938 0.795792 0.871124 0.982105 0.237419 0.302784 0.898502 -0.875937 0.119800 -0.527566 -0.809818 -0.604043 -0.146901 -0.958954 0.865336 -0.295752 -0.700306 -0.049439 -0.916240 0.746648 0.913335 0.415196 0.191868 0.719611 0.503003 -0.031114 -0.931283 -0.065255 -0.748107 0.557775 0.530700 -0.522740 0.307823 -0.415862 0.600631 0.800088 -0.925282 0.786497 0.657498 0.569168 0.010885 0.948104 0.788807 -0.528719 -0.185826 0.821566 0.066360 -0.684661 0.901589 -0.997957 -0.656186 -0.510390 -0.124248 -0.235391 -0.218978 -0.357290 -0.968325 -0.629874 -0.284572 -0.809560 -0.280522 -0.726597 0.089187 0.957715 0.309212 0.922997 0.807897 0.319299 0.460124 -0.690161 0.467863 -0.621711 0.905764 -0.825978 -0.220066 -0.653478 0.988990 -0.039099 0.865722 0.187973 -0.745870 0.157312 -0.049049 -0.366587 0.775411 0.339320 0.951098 -0.890159 -0.906127 0.730974 -0.515508 -0.148130 0.378571 0.635481 0.537068 0.499901 -0.160603 0.746343 -0.215066 -0.614317 -0.818818 0.130365 -0.950191 0.144943 0.048961 1.205367 -0.662553 0.474466 0.357379 0.472302 -0.016455 -0.551872 0.688112 -0.904999 -0.324485 0.380622 -0.882803 0.722505 -0.858570 0.019330 0.886088 0.488507 0.343497 -0.852380 0.048464 0.529075 0.171026 0.438841 -0.407422 0.455749 -0.222312 -0.402217 -0.067654 0.944886 0.692019 0.758176 0.665734 0.988996 0.054833 -0.417745 0.963050 -0.026987 0.429696 -0.100895 0.262897 0.509743 -0.745217 -0.864765 -0.098225 -0.870829 -0.022942 0.418962 -0.501586 -0.159709 -0.229611 0.930699 0.254542 0.079932 -0.586992 0.431028 0.283351 0.279992 -0.174615 -0.751002 -0.092439 0.384347 -0.281726 -0.973038 0.145074 0.258252 0.433132 -0.347361 -0.097093 0.155294 0.023092 0.114167 0.811323 -0.088077 -0.316790 -0.290035 -0.610539 0.662820 0.014442 0.719464 0.027507 0.303421 -0.405903 -0.019283 -0.090835 -0.670779 0.224502 -0.790415 -0.503936 0.351766 0.126516 0.362770 -0.926188 -0.441207 0.635410 -0.661384 0.118403 -0.003591 -0.348359 -0.862131 0.165481 -0.760899 -0.423729 0.391184 0.621787 0.375835 0.664938 -0.386003 0.447181 -0.222795 -0.518303 0.878362 0.624874 0.249512 -0.456831 0.048246 0.875178 -0.876124 0.982067 -0.394513 -0.584381 0.302367 -0.122189 0.361982 -0.168107 0.619691 -0.856742 0.744106 0.197856 -0.626409 -0.051298 -0.166213 0.460069 0.377500 0.634237 -0.372533 0.832848 -0.321437 -0.390015 -0.984519 -0.807001 0.738667 0.770414 0.352485 0.220558 0.917561 -0.555432 0.855754 0.650780 -0.344506 -0.118429 -0.429802 0.311802 0.461809 -0.375186 0.242360 -0.660173 0.466149 0.565652 0.906395 -0.218744 -0.425040 0.351799 0.685789 0.053111 0.630136 0.697220 0.182196 0.162071 -0.073322 -0.330923 0.172803 0.292213 -0.776062 0.733049 0.359904 0.914202 0.990227 0.751651 0.999924 -0.273616 -0.670416 0.323498 -0.970568 -0.343613 0.895772 -0.758575 0.629165 0.378693 0.686272 0.172922 0.296108 0.685366 0.942165 0.974283 0.768738 0.176132 0.243365 0.237490 -0.504680 -0.162567 -0.270573 0.475001 -0.652533 0.877240 -0.227692 -0.814533 0.151589 -0.239338 -0.550196 0.849971 -0.535790 0.974529 0.909826 -0.549406 0.131445 -0.804707 -0.704021 -0.477897 -0.023242 -0.626009 0.661723 -0.417660 0.391550 0.776256 0.535524 0.555785 -0.929862 -0.183731 0.026313 0.238817 -0.201046 -0.984690 0.310250 0.372858 0.617248 0.080193 -0.198136 -0.071213 -0.875279 -0.816328 -0.028753 0.743589 -0.506647 0.782543 0.198146 0.239762 -0.326915 -0.467453 -0.482006 0.931636 0.011684 0.370312 -0.167604 -0.912365 -0.126878 -0.431806 0.632994 0.738058 0.533288 0.979460 -0.209033 0.785501 -0.084984 -0.328739 0.881433 0.239888 -0.196155 -0.778480 0.089383 0.264653 0.023138 0.884626 -0.082661 0.722261 -0.963203 -0.552115 0.607599 -0.076981 0.172629 -0.625160 0.934955 -0.218063 -0.980572 -0.466750 -0.673987 0.306422 0.030335 -0.160449 -0.663692 -0.677911 0.343747 -0.647961 -0.273292 0.775422 0.525697 -0.608015 -0.905016 -0.611885 0.049966 -0.221445 0.172361 0.862938 -0.599910 -0.686308 -0.781625 -0.779119 -0.644905 -0.914826 0.521060 -0.538414 0.881798 0.374416 0.805250 -0.169994 0.904989 0.142819 0.364239 -0.227935 -0.909367 0.265455 -0.499963 -0.885720 -0.296315 -0.171669 0.760879 0.101314 0.778096 -0.538640 -0.926670 -0.544050 0.143363 -0.497191 -0.288081 0.223568 -0.486903 0.623542 -0.126375 0.008432 -0.280912 0.719304 -0.653041 0.347906 -0.739966 -0.606767 0.064816 -0.630014 -0.650640 0.686328 -0.881528 0.165520 -0.102028 -0.783496 -0.219162 0.541793 -0.081516 -0.037002 0.112058 -0.647764 -0.975573 -0.462166 0.384257 0.211572 -0.101860 0.030866 0.769454 0.215655 0.505924 -0.938428 -0.164539 0.596226 0.776612 0.525373 -0.050362 -0.441362 0.025535 -0.830672 0.900400 -0.980383 0.695447 0.380086 0.103223 0.864238 -0.754776 0.481788 -0.582998 -0.440591 0.989039 0.783155 0.488820 -0.405667 -0.045710 -0.251191 0.240985 0.234882 -0.339705 0.578310 -0.343868 0.605106 0.016756 -0.387832 -0.300432 0.638171 -0.259717 0.932071 -0.676092 0.915001 0.418555 0.657791 -0.500360 0.449735 0.700191 0.116216 -0.758960 0.160295 0.082978 0.618422 -0.176319 0.601559 0.407825 0.308723 0.700285 -0.316914 -0.367623 -0.631780 -0.326010 0.750421 0.328620 -0.878096 -0.160399 0.166357 -0.043176 0.333008 0.867731 -0.045627 -0.851194 -0.016396 0.426127 -0.086806 -0.952727 -0.486700 0.040144 0.695038 -0.488164 -0.565820 0.256797 -0.020249 -0.324885 -0.347817 0.239201 0.248539 -0.798086 0.566586 0.608174 -0.426677 0.842299 0.517373 -0.519877 0.424028 0.644130 -0.102727 -0.534852 0.739639 -0.894325 -0.923800 -0.306114 -0.857888 -0.515367 0.221131 0.550100 -0.476541 0.774205 0.060149 0.915956 0.468920 -0.857058 -0.571970 0.892185 0.947280 0.929293 0.622240 -0.005163 -0.772153 0.417575 0.185209 0.813895 -0.874576 -0.999575 0.142204 0.017779 0.816139 0.854691 0.791052 -0.787822 -0.930046 0.721049 0.672631 0.912363 0.092880 -0.968345 -0.982514 0.885769 -0.874168 -0.138166 -0.152780 0.226169 -0.778603 0.022799 -0.814457 -0.584609 0.482692 0.597232 -0.326726 0.717707 0.503937 -0.325547 0.525074 0.915059 -0.595870 -0.788548 0.877864 0.260848 0.078399 -0.353450 -0.430440 -0.405909 -0.120635 0.494808 0.240299 0.705294 -0.126139 -0.025399 -0.876014 0.828433 -0.525686 0.800810 -0.793110 0.193392 0.337384 0.409572 -0.331764 0.034138 -0.246655 0.473970 0.006424 -0.030705 -0.052186 0.915162 -0.871690 -0.487669 -0.247235 0.719512 0.831870 -0.768865 -0.313310 0.206675 -0.405243 -0.921445 -0.718022 0.209726 0.863471 0.348839 0.936033 -0.100174 0.368224 0.742025 -0.791587 -0.194314 0.167501 -0.814805 -0.421437 0.915672 -0.296008 0.991387 0.239718 0.932366 0.270126 0.007881 0.448551 0.789266 -0.802919 -0.658261 0.615371 0.544088 0.493750 0.462373 -0.905060 0.649071 0.936632 -0.032020 -0.159597 -0.347291 -0.915875 0.890583 0.023161 -0.738722 0.304932 0.983997 0.033046 -0.596047 0.237401 -0.007782 -0.784007 -0.806333 -0.034735 0.202919 0.451751 0.571497 -0.856595 -0.798930 0.381839 -0.425191 -0.180783 -0.416303 -0.806730 -0.717954 -0.649737 -0.134663 0.712442 0.019758 0.069334 -0.709552 0.553946 0.163603 -0.329091 0.963226 0.942948 0.126465 -0.504439 -0.102341 -0.044538 -0.551108 -0.467893 0.126803 -0.829335 -0.632176 -0.979676 0.584453 0.907903 -0.874252 0.445042 -0.175492 0.505903 0.705315 0.235345 -0.558040 -0.977393 0.960726 0.927476 0.087708 0.103623 -0.403065 -0.320223 0.005049 0.862191 0.837531 0.380752 -0.709389 -0.707576 -0.238175 0.995566 0.478987 0.330387 0.821598 0.594953 -0.622450 0.485050 0.231954 0.443029 -0.006945 -0.730869 0.287586 -0.539727 0.800902 0.761989 0.751896 -0.885096 0.190785 0.518309 -0.775539 -0.481413 0.893211 0.202264 -0.552281 -0.189388 0.948292 -0.057417 0.990693 0.579648 0.147927 0.214486 0.860735 0.376495 -0.240730 0.057882 0.816502 0.940914 -0.058772 0.224615 -0.903055 0.359826 -0.402366 -0.559570 -0.686859 -0.042568 0.556172 -0.422658 0.384069 -0.950969 -0.943596 0.987431 -0.245055 -0.631777 -0.273761 0.896695 0.749751 -0.929815 0.593678 -0.062115 0.026681 0.433858 -0.149464 -0.035854 -0.591325 -0.392696 -0.049223 0.716604 -0.042852 -0.208209 0.633432 0.088130 -0.805279 -0.327043 -0.606838 0.874379 -0.316818 -0.753778 -0.750638 0.025059 -0.840475 0.129578 -0.180120 0.721732 0.144163 0.951485 -0.383691 -0.702878 0.726792 -0.811033 0.960227 0.536043 -0.728739 0.077166 0.925486 0.647823 -0.034532 -0.375315 0.088105 0.774413 -0.432417 0.364939 -0.472306 -0.048536 0.262079 0.765293 0.274304 0.225346 -0.617705 0.224310 -0.015114 -0.018784 0.290862 0.512660 0.277939 -0.679731 -0.234426 0.006119 0.840519 0.604488 -0.364579 0.523858 0.486310 -0.581220 -0.558386 -0.794389 0.710462 -0.747460 -0.374745 -0.342187 0.867941 -0.513493 -0.268951 -0.267226 0.734465 0.160645 -0.044427 -0.686867 -0.166757 -0.685451 -0.367911 0.523776 -0.901493 0.612036 0.483461 -0.470382 0.292855 0.019366 -0.514271 0.650759 -0.687927 0.003428 -0.391340 0.744014 0.635431 -0.304282 -0.075400 0.756050 0.939861 0.241378 0.835235 -0.209150 0.815573 -0.672411 0.789243 0.808627 0.595163 0.900809 -0.096559 -0.875311 0.642118 0.082458 -0.122286 0.738824 -0.579217 -0.901711 0.940498 0.950136 0.938449 0.508367 0.121882 0.476402 0.892222 -0.419364 -0.243664 0.738544 0.715413 -0.050699 -0.091312 -0.682179 0.619972 -0.133637 -0.042278 -0.568673 0.307105 -0.482261 0.637308 -0.772670 -0.269976 0.505010 -0.295534 0.967584 0.187277 -0.437151 0.800175 0.541286 -0.610458 0.027613 0.100089 0.197969 -0.727888 0.385350 0.572845 -0.190929 -0.946049 -0.246343 -0.289532 -0.164134 -0.599309 -0.587318 0.949439 -0.783464 0.312327 -0.727014 -0.924086 0.893457 0.335150 0.870579 -0.175686 -0.759243 -0.596822 -0.793864 -0.475778 -0.403307 -0.373891 0.007680 -0.914440 -0.998299 -0.409866 -0.619948 0.533455 -0.218277 -0.577837 0.293534 -0.570648 -0.888315 0.093934 0.752902 0.031178 0.016816 0.619546 0.717507 -0.867177 -0.649337 0.599802 0.874535 0.309821 -0.830548 0.973965 -0.569566 -0.696859 -0.102062 0.651706 -0.775181 -0.471888 0.973064 0.282543 0.703417 0.330462 0.073269 -0.566589 -0.663271 0.400648 -0.303767 0.585699 -0.161474 0.103300 0.161772 0.895120 0.288155 -0.977626 -0.960300 0.232541 0.310077 -0.529771 0.145457 0.689508 0.558237 0.281310 -0.020386 -0.629501 -0.017216 0.651185 0.461492 0.299048 0.092906 -0.525874 -0.362124 -0.211735 -0.630309 0.390369 0.923778 -0.059409 -0.482970 0.724400 0.983108 -0.911156 0.206703 0.054040 0.242115 -0.775294 -0.365932 -0.223969 -0.250271 -0.297709 0.396870 0.198504 0.259930 0.644329 -0.763935 0.537872 0.014930 0.921154 -0.158182 -0.565553 0.751747 0.603766 -0.497768 0.017051 0.577733 -0.046140 0.524523 -0.345116 -0.369877 -0.516980 -0.875528 -0.999992 -0.868783 0.362556 -0.521168 0.728112 -0.624498 0.069718 -0.249965 0.845843 0.083540 0.061093 0.795831 -0.465106 0.964993 0.636005 -0.662227 -0.046559 -0.509427 0.067790 -0.653199 -0.323046 0.569848 -0.568705 -0.217606 0.698271 -0.165914 -0.512115 0.883358 0.605322 -0.354783 -0.838494 -0.560956 0.012333 -0.713108 0.790037 0.148877 0.175035 -0.181771 0.978207 0.732806 0.268153 0.853956 0.438099 -0.875721 -0.236071 0.360424 -0.348486 0.987684 -0.000282 -0.744697 -0.126373 0.051446 0.650772 -0.473845 0.088085 0.436643 0.659722 -0.049556 -0.894700 0.783032 0.421516 0.413746 -0.169147 -0.848938 -0.093708 -0.958350 -0.986900 -0.821192 0.227716 -0.784585 -0.523005 -0.144849 -0.472746 0.553464 0.063232 0.744803 -0.101299 -0.530094 0.708071 0.548120 0.249431 0.184856 0.875887 -0.962120 -0.358420 0.031411 -0.075056 0.540207 -0.742434 -0.089201 0.801734 0.745332 0.791820 0.121649 0.546892 -0.389675 0.726837 -0.053801 -0.232619 0.373386 -0.493875 -0.561546 0.102600 0.402620 0.842284 0.269136 -0.635442 0.134419 -0.820754 -0.413963 0.517676 0.578501 0.874585 -0.847200 -0.895387 -0.776781 0.636143 -0.337717 -0.008102 -0.172681 -0.256527 0.543984 0.744886 -0.708690 -0.959148 -0.392108 -0.164706 -0.213878 -0.655447 -0.099193 0.867870 0.285442 -0.584071 -0.482391 0.450620 -0.430678 -0.396998 -0.341849 0.538333 -0.229076 -0.078493 0.760956 -0.615616 -0.653840 0.909091 -0.906742 0.382385 0.750288 0.091280 0.151332 -0.565066 0.935843 0.721130 0.032494 0.129205 -0.459967 -0.673323 -0.543945 -0.079769 -0.683922 -0.678151 0.314920 0.855610 0.241369 0.695111 0.738291 0.457884 -0.344373 0.124624 0.563355 0.308354 0.506919 -0.219410 0.383080 0.420923 0.451733 0.274157 -0.240243 0.243669 -0.653973 0.681925 -0.878190 0.264638 -0.235054 -0.547004 0.497760 -0.145591 -0.954365 -0.015672 0.605710 0.176009 0.184200 -0.143797 -0.798582 0.235823 -0.527340 0.999323 -0.373327 -0.502956 0.812154 -0.123612 0.453989 0.196673 -0.518551 0.720259 -0.612740 -0.324539 -0.520021 0.011613 -0.826763 0.601549 0.231183 -0.499156 0.688163 -0.050391 -0.924171 -0.540615 -0.122998 0.773761 0.608741 -0.896757 0.197712 0.938839 -0.931038 0.040474 0.238628 0.621010 -0.692793 0.235541 0.734889 -0.716107 0.388829 -0.946818 0.837314 0.743352 -0.474882 0.651669 0.609212 -0.971228 0.569631 -0.219534 0.298057 -0.561216 -0.362153 -0.707489 -0.759962 -0.673161 0.189822 0.332705 -0.233669 0.730230 0.976482 -0.262687 -0.980098 -0.501557 0.331443 0.555822 -0.301702 -0.697779 0.420683 0.415706 0.762963 -0.882477 0.205237 -0.587237 0.305373 0.401407 0.445608 -0.674358 0.065331 0.010407 0.908999 -0.459494 -0.714782 0.654365 -0.094893 -0.868571 -0.067633 -0.716013 -0.038697 -0.374424 -0.941350 0.727859 -0.881542 -0.068613 0.813502 0.527685 0.803491 0.277119 -0.464534 0.576260 -0.804812 -0.479041 0.751752 0.689684 -0.475930 -0.947722 -0.361119 0.672592 0.258470 0.110680 0.206985 0.798964 0.183084 -0.914186 -0.715851 0.700126 -0.988539 -0.370059 0.424225 -0.052344 0.260724 -0.017143 -0.122376 -0.777879 0.186667 -0.679521 -0.703168 -0.143871 -0.038107 -0.455988 0.212942 0.908730 -0.982854 -0.820969 -0.020073 0.640260 0.847826 -0.594800 -0.810579 0.594083 0.757673 0.213740 0.333144 -0.845607 -0.123914 -0.621787 -0.372752 -0.839050 0.094500 0.260971 0.133087 0.788223 -0.342783 0.847825 -0.606728 0.725832 -0.948428 -0.225128 0.276470 0.639344 -0.541603 -0.713742 0.130491 -0.844725 0.703784 0.503949 -0.130217 -0.554810 -0.687309 0.394122 0.016164 -0.338764 0.400380 -0.815998 -0.473753 -0.365143 -0.961059 -0.526820 -0.272084 -0.908966 -0.999219 0.131286 0.520929 -0.744683 0.116245 -0.277122 0.415760 -0.319755 -0.127556 0.171419 -0.957175 0.756667 -0.706119 0.262806 0.985918 0.321280 -0.243417 0.886489 -0.783022 -0.252357 0.644007 -0.177419 0.112889 -0.675222 -0.457797 -0.190766 -0.196818 0.084800 -0.763162 -0.463092 0.810315 0.957737 0.688133 -0.543452 0.195176 0.324086 0.918691 0.437804 0.180002 -0.707579 -0.279451 -0.734729 -0.583483 -0.590408 -0.992812 -0.195796 -0.735756 0.152533 -0.377291 0.872696 -0.596902 -0.132815 -0.223649 -0.873038 0.844239 -0.876830 -0.889956 0.514670 0.056643 -0.007651 -0.596568 -0.520698 0.630397 -0.919809 0.763538 0.788239 -0.074542 -0.826024 -0.989915 0.500453 -0.884133 0.382024 0.683647 0.048650 -0.336589 0.950573 0.280694 -0.367989 -0.789943 -0.571535 0.213863 0.389617 0.286681 0.241757 -0.795822 0.612085 -0.685332 -0.368054 0.111704 -0.584723 0.562946 -0.569898 -0.267418 -0.490453 0.962738 0.737720 0.857073 0.830929 -0.569851 0.521621 0.886272 -0.419889 0.926720 -0.615585 -0.141823 0.374267 0.304646 0.191316 -0.551506 0.839168 -0.095786 0.122441 -0.134694 0.199768 -0.494592 -0.612902 0.954906 -0.896708 -0.976857 -0.033721 -0.748917 0.952587 0.133623 -0.191527 -0.991210 0.739500 0.768220 -0.525758 -0.414062 0.859112 -0.909562 0.994706 0.016842 -0.928340 -0.607548 0.941075 0.651484 -0.502427 -0.291189 -0.016789 -0.173584 0.568737 0.769647 -0.548846 -0.457080 -0.142180 0.386500 -0.100155 0.693832 -0.759837 -0.587762 -0.514225 -0.584354 0.763183 0.822776 0.403353 -0.848340 -0.045370 -0.539851 0.731109 -0.247614 0.345967 0.666415 0.436110 -0.303944 -0.382921 0.240105 -0.551462 -0.419768 0.954298 0.879189 0.528998 0.863944 0.312843 -0.052282 -0.702783 0.321368 -0.775926 -0.989008 -0.251479 -0.600720 -0.302375 -0.016228 -0.739303 0.532379 -0.305924 0.335381 0.743724 -0.228939 0.225026 0.015064 -0.812345 0.922189 -0.775456 0.912651 0.930187 -0.355326 0.043818 0.442008 0.834397 -0.282199 -0.910479 -0.427359 -0.614676 -0.861464 0.153068 -0.752194 -0.118114 0.858162 -0.866261 0.753803 -0.827051 -0.246010 -0.696339 0.631540 0.300251 0.315963 0.383328 0.588637 -0.782250 0.731543 -0.954690 0.518470 -0.070151 0.975041 -0.481434 0.545267 0.295279 0.746305 -0.856954 -0.817549 -0.544923 -0.518855 -0.387934 -0.011683 -0.362282 -0.874626 0.163426 0.701913 -0.949008 0.019131 -0.470281 -0.018089 -0.021348 -0.796056 0.687631 -0.993818 0.899184 0.589553 0.611749 -0.331447 -0.622252 -0.191044 -0.880195 0.556997 -0.544017 0.711464 -0.432225 -0.408953 0.719344 0.021326 0.432959 0.748226 -0.559500 0.486595 0.207235 0.995760 -0.256478 -0.627422 0.913592 0.737981 -0.752381 0.740851 -0.517731 0.493729 0.109857 0.369886 0.674149 0.417390 -0.933927 -0.519268 0.669106 -0.340452 0.021871 -0.414258 -0.439296 0.752701 0.642877 0.836044 -0.615013 -0.518708 0.081661 0.474290 -0.614074 -0.742798 -0.200343 0.835240 -0.114451 0.422809 0.151988 0.455839 -0.707800 0.001317 0.140666 0.166515 0.611199 0.426159 0.457596 0.815816 -0.580488 -0.256680 -0.015927 0.312837 -0.142317 0.086502 -0.162259 0.912956 0.056693 0.842042 0.198015 0.037922 -0.642080 0.553622 0.724480 0.328132 0.910039 -0.973835 0.748412 0.554002 -0.887450 0.627721 0.108542 0.271444 0.154001 0.296904 0.057375 0.302382 0.138100 -0.954260 -0.246302 0.405778 -0.083960 0.888725 0.807703 -0.943655 -0.011433 -0.149880 0.972162 -0.872798 0.879718 -0.573281 0.859906 0.447593 0.696200 -0.958242 0.830712 -0.222198 -0.481047 -0.960647 0.405746 -0.625498 -0.736987 -0.546961 -0.780883 -0.307658 -0.811818 -0.233012 -0.238017 -0.355787 0.286477 0.817157 -0.048856 0.880042 0.859142 -0.393663 -0.297376 0.008471 0.371056 0.343208 0.292720 -0.261504 0.901979 -0.430709 -0.930474 -0.483640 -0.542849 0.343332 0.375536 -0.373021 0.635165 -0.788401 -0.651116 0.686699 -0.653225 -0.747298 0.169428 -0.422010 -0.723957 0.451865 0.494514 -0.706671 0.984786 -0.694246 -0.187286 0.280890 0.916347 -0.957149 -0.798076 0.741724 0.160797 0.509223 0.514951 0.782611 -0.651206 -0.811550 0.278764 -0.807757 0.022773 0.749129 0.605249 0.418715 -0.651425 -0.493418 -0.884441 -0.797952 0.820111 -0.401108 0.569796 0.561285 -0.484287 0.588234 0.450821 0.950705 0.504369 0.937605 0.327831 -0.144152 -0.762040 0.387391 0.885307 -0.641698 0.974782 -0.834163 0.225937 -0.671924 0.971634 0.250753 0.403464 -0.972766 0.722483 0.764403 -0.682076 0.355297 -0.522948 0.814602 -0.992222 -0.278878 0.900205 -0.254028 0.543271 0.763497 0.091441 0.853104 0.120930 0.471540 -0.832228 0.741590 -0.094246 0.000174 0.931046 0.085500 0.993610 -0.397743 -0.874684 -0.814087 -0.367826 -0.053750 0.617653 0.901766 -0.020461 0.106087 -0.999193 0.566542 -0.136521 -0.510294 -0.515319 -0.959980 -0.388051 0.019531 0.254808 0.561733 -0.946460 0.841204 0.115997 -0.430435 -0.320727 -0.463348 0.503135 0.188335 -0.656094 -0.974355 0.008204 -0.112436 0.290514 0.671794 0.837421 0.534683 0.420219 0.620235 0.286007 0.925140 0.824034 -0.459596 -0.430088 -0.482663 -0.113359 0.782016 -0.663057 -0.000881 -0.807232 0.845580 -0.334617 0.085855 0.968135 -0.554880 0.138595 -0.641779 -0.383061 -0.114254 -0.275042 -0.635212 -0.012988 -0.292238 0.350730 0.714316 -0.486744 -0.714271 -0.758512 -0.307591 0.313363 0.691713 -0.372056 0.856379 -0.833335 0.141457 -0.538472 -0.097344 -0.055183 0.534600 -0.970699 -0.538550 0.596936 0.706394 0.365067 -0.324109 0.706630 0.322126 -0.029197 -0.708837 0.580727 0.282642 0.369526 0.620953 0.356679 0.708095 0.957298 -0.691929 0.742311 0.022085 -0.825414 -0.734241 -0.381964 0.330072 -0.485103 0.871552 0.166414 0.928499 -0.724443 0.290903 -0.797148 0.332400 0.642423 -0.796592 -0.316748 0.413243 -0.624897 -0.642928 0.315296 -0.816582 -0.300010 -0.267366 0.377554 -0.444255 -0.587206 0.825905 0.979696 -0.244413 0.145916 0.414291 0.985890 -0.153577 0.832825 -0.710830 -0.921126 0.628281 -0.485664 -0.562464 0.675058 -0.305350 -0.014565 -0.795815 0.734223 0.093390 -0.391396 -0.194337 -0.219216 -0.359992 -0.391617 0.095354 0.609257 -0.219928 -0.328859 0.868976 0.876121 0.962506 0.843898 -0.612510 -0.462601 -0.935386 0.969060 0.998135 -0.339616 0.079595 -0.239196 -0.159569 0.119662 -0.845283 -0.673474 0.924632 0.285731 0.285825 -0.146021 -0.182487 0.944711 -0.245656 -0.739830 -0.325584 -0.089922 0.675667 -0.062088 0.484086 0.028348 0.447987 -0.687543 0.457099 0.457989 -0.573673 0.286116 0.756291 0.983401 0.028849 0.858579 0.133409 0.205385 -0.095039 0.672478 0.337785 -0.840983 -0.406345 0.552788 0.709816 -0.126021 -0.029205 -0.847770 -0.478088 0.776963 0.412384 0.936954 -0.606796 -0.427932 -0.249156 0.438274 0.074022 0.093205 0.495149 -0.031065 -0.106070 -0.720874 0.277065 0.627685 -0.491787 0.533866 0.692157 -0.920116 -0.386338 0.819036 -0.466231 0.048768 -0.356408 -0.147498 -0.994316 0.536490 0.779864 -0.831965 -0.839610 0.667090 -0.212493 0.630130 0.598812 0.226048 -0.819250 0.859919 0.653834 0.979994 0.753209 -0.821011 -0.739958 -0.468569 0.759079 -0.151235 0.193389 0.290206 -0.500215 0.879353 -0.708857 0.232438 0.587994 0.421478 -0.227218 -0.850920 0.586385 -0.622213 0.470441 0.693659 0.318829 0.565133 0.198370 -0.001797 -0.197991 0.365214 0.153548 0.676524 0.343816 0.512267 -0.322351 0.242017 -0.426846 0.003863 0.918520 -0.435710 -0.971217 0.753535 0.655412 -0.488082 0.799584 0.602392 0.395472 0.694430 -0.710044 0.296766 -0.253627 -0.701852 -0.023859 -0.999815 0.112766 -0.738597 0.393586 0.999670 -0.552199 -0.800740 -0.038882 0.506111 0.200901 0.536117 0.514276 -0.565170 -0.814821 -0.703624 0.189183 -0.401505 -0.097770 0.784205 0.139943 0.029444 0.861649 -0.262658 -0.497790 -0.353825 -0.734972 -0.671148 0.012071 0.881037 -0.407798 0.132747 -0.916731 0.501928 -0.095736 0.966108 -0.624208 0.942290 -0.927671 0.629756 0.317274 0.418830 -0.718108 0.760235 -0.724120 -0.290464 0.179700 0.210853 -0.186839 -0.203166 -0.610339 0.035547 -0.564985 0.299432 0.549958 -0.852220 0.741690 -0.424193 0.585711 0.039538 0.519851 -0.871133 0.865109 -0.118119 0.770116 -0.666377 0.193929 -0.641035 0.122569 0.012815 -0.620392 -0.927814 0.231397 -0.911752 0.190265 -0.216435 0.371399 0.109066 -0.924924 0.802674 0.544470 0.913972 -0.880804 0.320106 0.029092 0.950032 -0.804781 0.044511 0.103627 -0.336682 -0.616704 -0.950608 -0.867390 -0.230761 -0.407430 0.323045 -0.577048 -0.446061 -0.939291 -0.656392 0.020055 -0.930336 -0.164405 0.839139 -0.597910 0.921029 -0.260955 0.124604 0.224990 -0.596379 0.666419 0.500787 0.724337 -0.060539 0.524795 0.236988 -0.941052 -0.268994 -0.982791 0.234496 -0.833964 -0.425989 0.404617 0.394837 0.025289 -0.968974 0.453390 0.127031 -0.982909 0.244563 0.368023 -0.635210 0.022074 0.997053 -0.537427 -0.533093 0.310479 0.222883 0.001369 -0.993660 -0.438739 0.115887 -0.282749 -0.158274 -0.108584 -0.975488 0.969653 0.959522 0.694057 -0.977525 0.731416 0.914674 0.934102 -0.551855 0.980427 0.031388 -0.465701 0.963050 -0.026486 0.848114 0.257846 -0.383495 0.606846 -0.731829 0.146091 -0.650883 0.604141 -0.202596 0.963095 0.741062 -0.977927 -0.016996 0.352243 0.155354 -0.966508 -0.094308 0.969629 0.561254 0.999094 -0.221161 0.943503 -0.544503 0.539028 -0.558284 0.912715 -0.004112 0.882210 -0.690670 -0.086828 0.683581 0.952285 -0.939179 -0.776592 -0.181686 0.400791 0.093481 -0.863642 0.771135 0.473309 0.897660 0.969729 0.242280 0.000610 0.245993 0.405339 0.530421 0.782659 0.154832 0.265251 0.070897 -0.430671 -0.279446 -0.644271 -0.269727 0.695906 0.085413 -0.472066 -0.005480 -0.105793 -0.058893 0.180555 0.583589 0.384197 -0.809221 -0.575568 0.428692 -0.967253 -0.615121 0.269508 -0.967721 -0.489560 -0.033987 0.782195 0.349406 0.472229 0.748544 0.785159 0.168269 0.104183 -0.994549 0.621020 -0.523242 -0.129817 0.168589 -0.519649 0.258261 0.584995 0.011880 -0.331421 -0.197546 -0.161433 0.798219 -0.334944 0.602889 0.750669 0.490918 0.863772 -0.581896 0.066018 -0.443304 -0.602927 0.605972 0.576745 -0.643678 -0.293548 0.335998 -0.877649 -0.652704 -0.001158 0.541509 -0.851140 0.888770 -0.439448 0.202338 0.686930 -0.759089 -0.016202 -0.312829 0.289531 0.139293 -0.901631 0.296025 -0.704957 -0.219747 0.711216 -0.592598 0.207474 -0.980249 0.949598 -0.106173 -0.451879 -0.724766 0.864944 -0.893365 -0.792635 0.175162 -0.060152 -0.968956 0.757178 -0.102184 0.593277 -0.791916 0.261111 0.484566 0.105897 -0.190097 -0.968138 0.506356 0.327119 -0.111218 0.752244 0.957383 0.728087 0.958592 -0.948256 0.654522 0.553315 -0.427197 0.105238 0.729125 0.411427 0.845454 -0.454562 0.182105 0.643301 -0.033414 0.411462 -0.554498 0.547655 0.442158 -0.651084 -0.769322 0.012278 0.356227 -0.894502 0.097593 0.253248 0.334960 -0.334476 0.469313 -0.250788 -0.998848 0.367071 -0.641763 -0.114539 0.947257 0.543562 -0.349186 -0.769073 0.197445 0.451512 0.562752 0.172940 0.598988 -0.802233 0.868134 0.734388 0.860826 -0.103358 0.870013 0.302033 0.266226 0.452505 -0.740174 -0.111400 -0.293638 0.817917 0.737585 0.582950 -0.367247 -0.319531 -0.364512 -0.355437 0.171421 -0.921503 0.305905 -0.657060 0.790108 -0.661014 0.337251 0.185943 -0.848132 -0.550004 0.077863 0.646476 -0.677595 -0.347063 0.904458 -0.779664 0.182716 0.902075 -0.826867 0.845374 0.203826 -0.288614 -0.732240 -0.756329 0.386091 -0.976137 0.065455 0.094663 -0.999565 0.305070 -0.680849 0.962894 -0.636064 -0.322737 -0.247155 0.068418 -0.104193 0.830837 -0.128472 0.771112 0.086357 -0.593661 0.331389 -0.337543 0.922857 0.465903 0.425424 0.101089 -0.990238 -0.931329 -0.844464 -0.913371 0.980687 0.406266 0.105569 0.293314 -0.271942 -0.528310 0.691330 -0.819388 0.552658 0.524662 -0.002621 -0.057583 0.200796 0.778158 0.496303 -0.632642 -0.807454 -0.880492 -0.423250 0.436801 -0.690473 -0.774474 -0.578343 -0.207202 -0.443845 0.301298 -0.085257 -0.906289 0.007601 -0.245800 0.845484 0.057565 -0.511190 0.433165 0.196619 0.568410 -0.741182 0.959162 0.633771 -0.211472 -0.204983 0.854221 0.885950 0.153886 0.358218 0.568799 -0.203189 0.996621 0.207826 0.935735 0.889807 0.979295 -0.982557 0.161063 0.989726 0.320210 -0.237696 -0.954481 0.038662 -0.214573 -0.329510 -0.073196 -0.210087 -0.928140 0.756053 0.988588 -0.804353 -0.766029 -0.653429 -0.175607 0.567483 -0.310976 -0.579646 -0.105414 0.298780 -0.412625 -0.988979 0.232363 -0.671581 0.729854 0.652228 -0.003152 -0.972804 0.086340 -0.890093 0.206126 0.355274 -0.909539 -0.625982 -0.872717 0.239206 0.329746 0.038004 0.727409 -0.438058 -0.433821 0.762816 0.652310 -0.619575 0.803535 -0.982381 -0.885171 0.929424 0.836070 -0.174106 -0.205875 -0.136908 0.988122 -0.638987 0.541923 0.105156 -0.642070 0.727868 -0.718205 -0.874975 0.296576 0.555938 -0.344264 -0.044663 -0.643394 0.482901 0.111178 0.561697 0.440109 0.909369 -0.229156 0.572225 -0.616796 -0.484373 -0.853884 0.771827 0.091616 -0.203539 -0.884629 0.032321 -0.773314 0.909771 0.514466 0.633530 -0.268505 -0.763600 0.167301 -0.169437 0.273356 0.295209 -0.419355 -0.095120 -0.674237 0.104428 -0.871195 -0.169146 -0.836822 -0.473212 0.718689 -0.996495 -0.097508 -0.823464 0.040481 0.359577 -0.594013 0.431857 0.214680 0.119776 -0.920842 -0.583672 0.228517 0.683970 -0.512634 0.166223 -0.287717 0.347671 -0.693832 0.765739 -0.232746 0.240638 0.406553 0.943314 0.272450 -0.931712 0.712336 0.234860 -0.701706 0.429457 -0.112441 0.201904 -0.599044 -0.126037 -0.302110 0.429557 -0.435673 -0.353137 0.818815 -0.169873 0.947436 -0.440609 0.685173 -0.303007 -0.643420 0.044311 0.733530 0.439441 -0.313284 0.633385 -0.701958 0.191932 -0.195529 -0.254956 0.956227 -0.684596 -0.001874 0.498465 -0.305703 0.042294 0.827851 -0.301713 -0.891889 0.020461 -0.107496 -0.677609 -0.575500 -0.420503 0.612192 -0.897335 0.491949 0.192402 -0.292884 -0.499529 0.407893 -0.548487 -0.414966 -0.338977 0.807341 0.974692 -0.343541 0.111192 0.796848 0.624491 -0.173120 0.372708 0.096640 0.230917 -0.981834 0.315399 0.911636 -0.125632 0.499881 -0.500314 -0.782889 -0.019681 -0.781943 -0.113525 -0.012076 -0.968802 -0.656958 0.509170 -0.385848 -0.953728 0.687420 -0.524434 -0.164727 -0.572185 -0.718464 0.777947 0.947530 -0.864222 -0.973540 -0.279011 0.666152 0.021270 -0.507160 0.166039 0.617987 0.515448 -0.858858 -0.819620 0.650133 0.785058 0.470730 -0.442065 0.211067 -0.592595 0.262963 -0.377331 0.191332 -0.276738 0.867835 -0.304135 0.411273 0.257477 -0.581118 -0.852206 0.969578 -0.306878 0.301482 -0.985920 -0.363730 0.782454 0.710244 -0.935293 0.522861 -0.278633 -0.992579 -0.275113 0.171517 0.683529 0.075497 0.882416 0.759162 -0.755966 0.487184 0.095837 0.728004 -0.443095 0.896963 -0.747472 -0.768012 0.026117 0.952885 -0.867549 -0.901635 0.217761 -0.082839 -0.272969 0.209897 -0.264972 0.615611 0.573589 0.302429 0.929768 0.619162 0.254460 0.701223 -0.546827 -0.513741 -0.441189 0.937915 -0.462797 -0.224684 -0.258692 0.170902 0.348339 0.533987 0.718138 -0.259050 0.140997 -0.255914 0.857449 -0.862504 -0.104787 0.846299 -0.250922 0.747690 0.428655 0.406607 -0.164324 0.211054 -0.812876 0.000378 0.355270 -0.975281 0.456598 0.042576 -0.421902 -0.915048 0.780838 -0.447367 -0.901679 -0.523630 -0.657510 -0.765141 0.282900 0.694628 0.611890 0.037095 -0.552200 -0.818756 -0.838871 -0.897341 0.388297 0.105936 0.470229 -0.861877 0.438600 -0.443950 0.526137 0.776712 0.205742 -0.098021 0.554945 0.960760 -0.508196 0.751460 -0.219014 -0.976653 -0.605803 0.276139 -0.938713 -0.943195 -0.272609 0.256565 0.093223 0.798749 0.582813 -0.664412 -0.764956 -0.616262 0.492441 0.462965 -0.946037 -0.041668 -0.313296 0.426252 0.018941 0.341475 -0.829920 -0.472661 -0.017598 0.232591 -0.835471 0.239788 0.112113 0.276311 -0.045852 -0.630563 0.122634 -0.895172 0.847188 0.682792 -0.315696 0.100884 -0.434467 -0.081135 0.365344 0.336573 0.774847 0.847546 0.710865 -0.491285 0.965777 -0.177956 -0.902932 0.423593 -0.676859 0.030261 0.601028 -0.518666 0.779851 0.960370 0.936719 -0.564529 -0.035093 0.184253 0.735762 -0.055799 0.184352 0.409086 -0.487467 -0.864130 0.559192 0.344495 -0.076338 0.980407 -0.305850 -0.428992 -0.070284 0.739329 -0.092146 -0.693493 0.463993 0.326197 0.386043 0.229205 0.244598 0.952669 -0.499360 -0.749147 -0.920792 0.240742 0.156044 0.637400 0.774963 0.801478 0.435053 -0.066546 -0.442287 0.490537 0.447527 -0.417523 0.688354 -0.829058 0.029429 0.610000 0.271302 -0.231320 0.209833 0.667276 0.915175 -0.660519 0.664931 -0.504432 0.017371 -0.042531 -0.812099 -0.955475 -0.665534 0.370379 0.962274 0.935033 -0.897723 -0.029561 -0.826475 -0.562131 0.270442 -0.679095 0.454485 0.529502 -0.657061 0.774064 -0.313480 -0.653659 -0.046827 0.979032 0.583664 -0.363600 0.973806 0.764773 -0.467500 0.725199 0.416773 0.703756 0.029248 -0.423219 0.959978 0.347589 -0.069896 -0.734324 0.217085 0.539843 -0.860197 0.663337 0.699849 0.358309 0.101076 0.791124 0.429022 0.565255 0.236544 -0.404857 -0.437564 -0.132830 -0.471416 0.903665 -0.109051 -0.822707 0.764842 0.704749 0.718182 0.493142 0.237816 0.971602 -0.278372 -0.603316 0.062611 0.304363 -0.562984 -0.074745 -0.237116 0.791274 0.943196 0.290469 -0.087333 0.198122 -0.159148 -0.807977 0.329275 0.120770 -0.214455 -0.338043 0.506223 0.097778 -0.650171 0.576216 0.467304 -0.019490 0.434366 0.392815 0.039922 0.972113 0.112867 -0.461535 0.975542 -0.067414 0.979770 0.998696 -0.917966 -0.258753 -0.861756 0.463345 -0.565855 -0.332169 -0.764958 -0.647802 0.395155 -0.626483 0.693931 0.906365 -0.718817 0.836449 0.194132 0.776959 0.357709 0.013966 0.734423 -0.557753 -0.161076 0.789398 -0.579667 -0.455707 0.930458 0.204364 0.748417 0.636351 -0.846843 -0.893079 0.025230 0.048316 0.042560 -0.699645 -0.928074 -0.140836 0.976751 0.254599 -0.947235 -0.176850 -0.316213 -0.587951 0.313137 0.890164 0.988883 0.149598 0.286185 -0.085375 -0.897802 0.638955 0.912704 -0.184385 -0.959202 0.696339 -0.633967 0.923035 -0.553612 -0.564869 0.253520 0.904902 0.684626 0.506628 0.899644 0.315353 0.139315 -0.537642 -0.144524 0.987367 0.680588 0.649894 0.761240 0.158485 -0.339997 -0.333159 0.591031 -0.537259 0.291867 -0.598739 0.986351 -0.398913 -0.528247 -0.244597 -0.941712 0.652264 0.596598 -0.969023 -0.366610 0.386817 -0.774937 -0.364359 0.213491 0.135001 0.969455 -0.374793 0.860948 -0.046572 -0.736188 0.891916 0.438195 0.748032 0.171911 -0.692169 0.711684 -0.728036 -0.099976 -0.304082 -0.705835 -0.964642 -0.744721 -0.530824 0.441630 0.478932 -0.595362 -0.257210 -0.936188 -0.511955 -0.420395 0.425640 -0.276444 -0.198845 0.014470 -0.796303 0.533535 -0.884084 -0.804941 -0.644770 -0.648059 0.073716 0.942264 0.636807 0.814922 0.392304 -0.543711 -0.149335 0.119435 -0.662923 0.245772 0.693308 0.420580 0.689553 -0.685439 -0.169919 0.166740 0.401948 -0.456927 0.429033 0.759114 0.427556 -0.061027 0.326204 0.511641 -0.852371 0.198808 -0.630014 -0.650734 -0.892125 0.051209 0.661719 -0.495235 0.588994 -0.783698 0.395417 -0.233073 0.746684 -0.489967 -0.880761 -0.947158 -0.877031 -0.257282 -0.144830 -0.155653 -0.061512 0.168466 -0.586452 -0.503908 0.820299 0.767741 -0.569012 0.622610 0.202228 0.846059 -0.288390 -0.966457 0.755041 -0.023450 -0.126760 -0.453989 -0.189488 -0.729760 0.925427 -0.346439 -0.595137 -0.475446 -0.824655 0.024573 0.992552 -0.183105 0.554063 0.136067 0.876579 0.661368 -0.381604 0.387775 -0.658627 0.458194 0.872325 -0.836538 0.313285 -0.611612 0.640085 -0.097926 0.160196 0.413410 0.188229 -0.437282 0.603517 -0.695864 0.621340 0.860486 0.188496 0.047306 -0.928499 0.709807 -0.266567 -0.184804 -0.008146 -0.917157 -0.657087 0.343316 0.109736 0.340618 0.767212 0.535819 -0.492033 0.394813 -0.382481 -0.350812 -0.095107 -0.462142 0.778487 0.033037 -0.750571 -0.844688 -0.679263 -0.372212 0.237332 0.835090 -0.645984 0.946781 0.543260 0.566867 -0.663948 -0.975011 0.995016 -0.772533 0.037175 0.792652 0.108607 -0.642726 -0.293272 0.979305 -0.823322 0.428901 0.535611 0.015794 -0.555483 -0.010876 -0.791577 -0.033044 0.635163 -0.811535 0.523182 -0.882634 -0.423015 0.392749 0.926073 0.514104 0.551940 0.451689 -0.457687 -0.338812 -0.410009 0.972191 -0.382445 0.248297 -0.877425 -0.874728 0.446086 -0.634939 0.575143 0.420683 0.414813 -0.232345 0.978516 -0.080878 0.677298 -0.655974 -0.961679 -0.944970 -0.114148 -0.489660 0.291170 -0.304468 0.810457 -0.656003 0.559738 -0.480715 0.620400 -0.945227 -0.425398 0.341288 0.032175 0.766561 -0.415479 -0.951302 -0.531639 0.743621 0.043688 0.256730 0.853192 -0.400262 0.799685 0.304611 -0.398683 -0.659203 0.776349 0.105369 0.931481 -0.591914 -0.305670 0.609862 -0.051752 0.196252 0.415678 0.300518 0.812697 0.997959 0.693768 0.154849 0.541005 0.673325 0.567252 -0.200698 0.876572 0.538244 0.265913 -0.795153 -0.142502 0.964015 0.206406 -0.942440 0.413560 0.697332 0.051446 0.647391 0.701831 -0.333415 0.299786 0.504276 -0.639925 0.782026 -0.486526 0.965468 0.626415 0.157956 0.763190 0.929262 0.106498 -0.082326 0.348325 0.291182 -0.110202 -0.158566 0.979305 -0.826687 -0.132348 -0.374677 0.796237 0.354604 -0.163326 0.979238 0.055128 0.537709 -0.729481 -0.382711 -0.231674 0.261887 -0.473259 -0.062430 0.743021 -0.042295 -0.858531 0.673584 0.919026 0.071022 -0.340075 0.357599 0.160604 -0.729187 0.545898 0.901183 0.179907 -0.304581 0.908727 0.976856 0.022498 0.123729 -0.490619 0.162087 0.203308 -0.996264 -0.201479 -0.260224 0.414712 0.064449 -0.801091 0.066484 -0.599012 0.406751 0.264355 -0.982529 0.630708 0.309317 0.684384 0.439421 -0.658098 -0.658485 0.838757 0.984420 -0.854475 0.841213 0.264526 -0.106292 -0.442923 -0.201145 -0.640233 -0.404227 0.156632 0.520241 -0.304606 0.489343 0.392941 0.155703 0.897760 0.644197 -0.984871 -0.729496 -0.640982 -0.978682 -0.713746 0.072388 0.618736 -0.910128 -0.514630 0.605813 -0.107809 0.053460 0.502464 0.919647 0.501177 -0.719043 -0.963144 0.439518 0.971508 0.139762 0.978944 -0.885111 -0.060301 0.522990 -0.105486 -0.894945 0.654701 -0.446352 0.162341 0.472765 -0.239000 -0.874905 -0.522957 0.663600 -0.882307 -0.927964 -0.295440 0.534893 -0.055270 -0.915328 0.075594 0.508250 0.156196 -0.817543 -0.451711 0.096202 0.871453 0.511388 0.895516 0.929283 0.464805 -0.019309 -0.528815 0.211521 -0.960538 0.230902 0.775924 0.957780 -0.584296 -0.264515 0.288349 0.274950 -0.907850 -0.240398 -0.364296 -0.728040 -0.168379 0.055650 -0.696351 0.433205 0.869624 -0.234112 -0.728316 -0.798694 0.354051 0.526879 -0.744345 -0.211046 0.942480 0.265394 0.468865 0.221465 0.168854 -0.078451 -0.519253 0.914760 0.367642 0.961724 -0.303917 0.058752 -0.556359 -0.720709 -0.958223 -0.859426 -0.378090 -0.555131 -0.084624 -0.273790 0.406608 -0.146542 -0.935091 -0.077584 0.053478 0.802434 0.499991 -0.658034 0.423213 0.939532 0.707211 0.097559 -0.333370 -0.948413 0.024205 0.807325 0.713699 -0.865700 0.184907 -0.267751 -0.097342 -0.024066 -0.471154 -0.683938 -0.945625 0.879472 -0.711881 -0.585539 0.842006 -0.410861 0.661080 0.775063 0.490659 0.498943 -0.258646 0.932987 0.708922 0.846630 -0.683916 -0.582075 -0.927193 0.666546 0.630389 0.945718 0.681262 -0.022407 -0.601109 -0.832697 0.853346 0.179857 0.862302 0.711179 0.790309 0.715955 -0.948694 -0.696004 0.262691 -0.945802 -0.098665 -0.260252 -0.056373 0.541905 -0.196644 0.997744 -0.924566 0.815408 0.554816 0.792433 0.421448 -0.725476 0.927336 -0.270847 -0.124212 0.377038 0.876020 -0.729617 -0.678201 -0.528012 -0.290324 0.525748 0.241303 -0.424247 -0.322320 0.762282 -0.320841 -0.376739 0.144690 -0.200835 0.559653 0.091442 0.866331 0.419792 -0.555466 0.286495 -0.881779 -0.053222 -0.494424 0.212417 0.096426 0.624604 -0.279233 0.938985 -0.482653 0.059041 0.296413 -0.189020 -0.855775 0.989473 0.078537 -0.035811 0.117838 0.509363 0.860232 -0.077643 -0.937935 0.121583 -0.559804 -0.622145 -0.399354 0.065644 -0.716592 0.230685 -0.884876 -0.105699 -0.484963 -0.781023 -0.652485 -0.322373 -0.121174 -0.569442 -0.616719 0.800498 -0.032129 0.008782 -0.398925 -0.740639 0.082908 -0.558945 -0.195016 0.359310 0.916579 0.936595 -0.643870 0.479202 -0.060169 0.734112 0.213496 0.231892 -0.592728 0.019096 0.949581 -0.388173 -0.021461 -0.695735 0.783390 0.437536 -0.330037 -0.936450 -0.913630 0.622949 -0.097248 -0.449040 0.982559 -0.135268 0.558824 0.154932 -0.051469 0.955295 -0.349183 -0.726372 -0.132383 -0.965850 0.957872 0.950987 -0.759691 -0.126807 0.754030 0.975578 0.545266 0.283977 0.805739 0.048961 0.891661 0.139186 -0.695920 -0.320360 -0.292335 0.733708 -0.571168 0.386426 0.664672 -0.862968 0.097003 0.331118 -0.905168 0.838941 0.087763 -0.964569 0.485991 0.049437 0.889756 0.129477 0.118255 -0.487242 0.923801 0.322502 0.298016 0.752912 0.192245 -0.935504 0.977077 -0.262778 -0.517431 -0.469282 0.778004 -0.089592 0.229854 -0.850750 -0.553280 -0.980629 0.569964 -0.608027 0.892155 0.454798 -0.217564 -0.598264 0.976636 0.316665 0.191816 -0.144311 0.572721 -0.280210 0.515255 -0.109524 -0.776849 -0.509230 -1.859524 0.664205 -0.702188 0.323812 0.304984 -0.140608 0.797725 -0.629549 -0.828043 -0.926742 0.238902 -0.771920 0.341576 0.864504 -0.278453 0.045868 0.903453 0.336963 -0.658454 -0.634388 -0.154758 0.984605 0.250794 -0.910586 -0.211786 0.506552 -0.386135 0.235215 -0.747858 0.749485 0.591576 0.620564 -0.185320 -0.676711 0.513318 -0.668003 0.870696 -0.210094 0.956249 -0.320153 -0.813232 0.015898 -0.803660 0.881471 0.881322 0.377886 -0.877483 0.136895 0.801897 -0.519869 0.567282 0.311804 0.497090 0.597163 0.511152 0.934621 0.180855 -0.366336 0.983525 0.103400 -0.156843 -0.052626 -0.486846 -0.417884 0.621916 0.548295 -0.812754 0.050543 -0.531899 0.372500 0.610556 -0.382980 -0.749289 0.704437 -0.533390 -0.678080 -0.489430 0.146580 -0.422348 -0.406934 0.654685 -0.709302 0.755735 -0.354850 0.033868 -0.788547 0.886301 0.058584 0.620936 0.071392 -0.107358 -0.367907 0.593462 0.310973 0.521824 0.304236 -0.710900 -0.094550 0.904629 0.097168 -0.894043 -0.182382 0.705926 0.492037 -0.340545 0.465504 -0.281884 0.375122 0.670166 -0.515489 0.174332 -0.001482 -0.914033 -0.160197 -0.424383 -0.604208 -0.921380 0.368998 -0.243803 0.397881 -0.817038 0.043171 -0.420867 0.489059 -0.379720 0.044813 -0.828611 -0.461953 -0.036055 0.017416 0.705248 -0.902594 0.110640 -0.480029 0.148845 -0.363309 -0.140066 -0.089485 0.024831 -0.659039 -0.472635 0.427128 0.735865 -0.318643 0.574884 0.077611 0.413115 -0.782580 -0.821892 0.461599 0.093947 0.969239 -0.001282 0.459132 0.626493 -0.530517 -0.397349 -0.242055 -0.221694 -0.014215 -0.909149 -0.066122 0.681322 0.974531 0.945421 -0.315546 0.624450 -0.863907 0.321375 -0.651518 -0.064327 0.850723 0.101777 0.565631 0.558998 -0.918084 -0.234082 -0.210257 0.213655 0.892748 0.413712 -0.749832 -0.426667 -0.986194 -0.963538 -0.184847 -0.716981 -0.294629 0.168882 0.400868 -0.618956 -0.792888 -0.063678 -0.241588 -0.367510 -0.740773 -0.165639 0.108370 -0.626504 0.341807 0.758201 -0.913474 -0.750287 -0.069414 -0.634752 -0.273664 0.532625 -0.169469 -0.260528 -0.686547 -0.792014 0.627481 0.075896 -0.415426 -0.066734 0.395328 0.279557 0.516198 -0.259029 0.496268 0.770441 0.805444 -0.898415 0.331188 0.279603 -0.707614 -0.867352 0.409702 -0.144075 0.528982 0.597848 0.028046 -0.633237 -0.807269 0.235296 0.611739 -0.505959 0.348148 -0.678519 0.139163 0.913138 -0.895953 -0.289389 0.242318 0.639789 0.937151 0.692003 0.486695 -0.117061 0.551580 0.399057 0.952324 -0.293206 0.089366 -0.029603 0.465380 -0.364277 -0.410321 -0.260331 0.609309 0.664405 0.651975 -0.263248 -0.410873 0.463730 -0.081802 -0.853146 -0.822783 -0.517305 -0.341856 0.431879 0.593930 0.177914 0.201861 0.684421 -0.936693 -0.991779 -0.824621 0.592673 -0.942483 -0.303978 -0.950161 0.644296 0.685996 -0.464030 -0.949536 -0.844718 0.829304 0.106995 0.267941 -0.723994 -0.166356 0.061553 0.517718 -0.706434 0.956137 -0.211333 0.132566 0.034632 0.061161 -0.059312 -0.854381 0.422734 0.894603 -0.405204 -0.258864 -0.728877 -0.243697 0.183639 0.423158 0.020747 0.697034 -0.944846 -0.024257 0.308984 -0.908434 -0.042440 0.711397 0.453441 0.977695 0.122360 0.498243 -0.031838 0.901359 -0.866046 0.370478 0.626379 -0.448150 -0.049275 -0.169310 0.405682 0.291740 -0.726901 0.967924 -0.109335 0.410580 0.622671 -0.761576 0.186133 0.345058 -0.606291 0.071740 -0.265099 0.486338 -0.123205 -0.703948 0.740277 -0.166517 -0.657610 -0.445243 0.802843 -0.611098 -0.729230 -0.171295 -0.958647 0.019392 -0.085370 -0.815375 -0.005061 0.947957 0.318804 0.145343 0.774489 0.839931 0.726233 -0.203866 -0.379289 -0.702600 -0.601868 0.411651 0.620096 -0.042416 -0.882211 0.684628 0.539655 -0.010890 0.969813 -0.357129 -0.259900 -0.136758 -0.484352 -0.510306 -0.719274 -0.834739 0.537252 -0.402907 0.340601 0.485338 -0.929159 -0.373318 -0.348339 -0.527303 -0.384867 -0.454005 -0.453785 -0.760865 0.133697 -0.961394 -0.144745 -0.727169 0.478656 0.763084 -0.847073 -0.762201 -0.311094 -0.554818 -0.823159 -0.838804 0.218981 0.412246 0.626673 0.490446 0.925799 -0.098899 -0.188072 -0.926108 0.898855 -0.938353 -0.895697 0.028591 0.533868 0.719361 0.305236 0.097762 -0.913106 -0.567314 -0.849100 -0.829322 -0.413742 0.239991 -0.471004 -0.166915 0.659344 -0.404067 0.839747 -0.379850 -0.131998 -0.485929 0.984943 -0.066448 -0.796464 -0.164919 0.201942 0.036019 -0.623756 0.536154 -0.864138 0.429040 0.871078 0.207153 -0.371287 -0.225009 0.279739 -0.422251 -0.780912 -0.791375 -0.636352 0.824444 0.431929 -0.567663 -0.704993 -0.822393 0.038453 0.286382 -0.769984 0.876935 0.654332 -0.635711 -0.392807 0.093392 -0.357430 0.679664 -0.892117 0.181580 -0.181806 0.378222 0.782891 0.052943 -0.182458 -0.563856 -0.724863 -0.770439 -0.766500 -0.569551 -0.439105 -0.036547 -0.242613 0.408263 -0.315691 0.174906 -0.350066 0.434002 0.278292 -0.750896 -0.309169 -0.204474 -0.586643 0.294121 -0.708813 0.984693 -0.262885 -0.306164 0.306162 -0.329594 0.505457 -0.787791 -0.410704 -0.694405 -0.869399 0.017818 -0.538780 0.725341 0.804129 0.990651 -0.123269 0.213023 0.278078 -0.342213 0.419835 0.158910 0.792721 -0.739179 0.613520 -0.566528 0.369027 0.234904 0.038230 0.538099 -0.162860 0.819977 -0.653350 -0.848725 -0.515915 -0.984651 0.963721 -0.747984 0.639230 -0.468392 -0.264881 0.145009 -0.838004 -0.327929 0.503948 -0.138372 0.382815 -0.028055 0.480685 0.872702 -0.494236 -0.620110 -0.193033 -0.300608 -0.315141 -0.570224 0.241320 -0.137974 -0.933106 -0.706242 0.183684 -0.816729 -0.766193 0.597137 0.073267 -0.604625 0.063078 0.158782 0.656592 -0.663075 -0.303120 -0.533535 0.879248 -0.485412 -0.319319 -0.797723 0.676131 -0.259041 0.289620 -0.353317 -0.197483 0.903501 -0.854948 0.881247 -0.873660 0.388663 0.267402 0.224700 0.540128 -0.072040 -0.780953 0.524757 -0.408280 0.031391 -0.416598 0.231132 0.641305 0.419042 0.839493 -0.633560 -0.235231 0.465404 0.051741 -0.387654 0.696175 0.615722 0.439677 -0.353517 0.440371 -0.677983 -0.856521 0.453774 0.583285 -0.726110 0.276633 -0.626748 0.238552 -0.662593 -0.205426 -0.593352 -0.473247 0.129285 0.892680 -0.734323 0.235101 -0.660169 0.543254 0.475940 -0.869971 0.402356 0.397783 -0.462297 0.169348 0.228301 -0.941674 -0.708369 0.444663 -0.547831 0.597267 0.273510 0.876831 0.898518 -0.612330 0.575580 -0.229104 -0.556074 0.062048 0.836413 -0.402190 0.386730 -0.234210 -0.374185 -0.932465 0.066004 -0.678564 -0.628839 -0.890013 -0.446220 0.373166 -0.206689 0.174835 0.448962 -0.302664 -0.869610 0.469060 -0.507284 0.070466 0.322910 -0.854412 -0.100881 0.490425 0.576320 0.212710 -0.988129 0.510901 0.710636 -0.341859 0.374011 0.003524 -0.767838 0.942786 -0.596532 0.079084 -0.839671 -0.350338 -0.124952 -0.061755 0.081662 0.485184 0.486527 -0.940189 0.240641 0.447235 0.676736 -0.091085 -0.868327 0.036436 0.384711 -0.163791 -0.831744 0.870276 0.735577 0.844755 -0.199735 -0.944241 0.135388 -0.542094 -0.971532 -0.546686 -0.154701 -0.058011 -0.994658 0.777268 -0.458448 0.857170 0.453211 -0.890973 -0.584773 -0.279782 -0.295849 -0.337301 0.980642 -0.347852 -0.349546 -0.813111 0.035946 0.151762 0.659972 0.149572 -0.136000 0.240181 0.728697 -0.783762 -0.683151 0.281268 -0.733979 0.018052 -0.599283 -0.150544 -0.189681 0.038357 0.658889 -0.053028 0.750185 0.359399 0.417269 -0.955604 -0.834550 -0.275302 0.992070 -0.279828 0.924566 -0.816378 -0.865502 -0.487493 0.705936 0.662338 -0.078275 0.437315 -0.055013 -0.609792 -0.777939 -0.824640 0.270571 -0.511691 0.003382 0.845010 0.075873 -0.798276 -0.632255 -0.305823 0.032404 0.608478 0.695494 -0.832268 0.066221 0.983864 -0.205499 0.176562 -0.530486 0.129585 -0.065855 -0.826561 -0.018133 -0.756588 0.017975 0.101242 1.281481 0.613833 0.687752 -0.947676 0.401592 -0.443802 -0.980460 -0.599363 0.505340 -0.752492 0.869112 -0.832068 -0.563916 0.261607 0.822921 0.833065 -0.678935 -0.861884 0.310905 -0.614502 0.069700 -0.558840 -0.424504 -0.636105 0.974987 0.604039 0.091646 0.302169 0.561089 0.225820 -0.636390 0.197583 0.781250 0.468451 -0.745960 0.652959 0.283465 0.200802 0.881654 -0.047986 -0.507861 0.381890 0.433456 -0.906970 0.554806 0.616543 0.241197 -0.199487 -0.775729 0.318259 0.987035 -0.903667 0.070373 0.762958 -0.966345 0.646299 0.346130 -0.589441 -0.732309 0.078967 -0.804465 -0.648975 0.670122 0.739926 -0.067756 -0.780625 0.029716 -0.569630 0.236548 -0.334905 -0.752813 -0.532460 0.943463 0.777233 0.948156 -0.337927 0.457682 0.256024 -0.996714 0.234711 0.781349 0.139866 0.727152 -0.763222 0.522939 -0.962442 0.243404 0.894342 -0.801197 0.280914 -0.682301 0.563703 0.154057 -0.762210 -0.469734 -0.825783 -0.943040 0.323022 -0.972921 0.109540 -0.967698 -0.097365 -0.412347 -0.323899 0.224817 0.504030 -0.768710 0.284967 -0.563039 -0.994328 0.335853 0.677127 0.469995 -0.794392 0.646192 0.549806 0.594349 -0.777070 -0.216613 -0.606331 -0.599340 0.895719 0.352381 0.462583 0.636513 -0.134114 -0.054179 -0.591622 0.605142 0.625788 -0.380235 -0.605469 -0.125863 0.621164 -0.101967 0.241852 0.809538 -0.093735 0.589568 0.864306 0.392977 0.761495 0.448713 -0.481444 0.369940 -0.414251 -0.324123 0.462791 0.130799 0.331385 -0.412347 -0.315322 0.390233 0.647463 -0.088166 0.197859 -0.583771 0.566572 0.371582 -0.814012 0.893409 -0.476116 -0.073464 -0.712174 0.485382 -0.183118 0.334799 0.973394 -0.162128 -0.880728 -0.388527 0.027211 -0.660595 -0.615713 -0.295781 0.807290 0.119082 -0.580692 0.314948 -0.670174 0.379029 0.332794 -0.732915 -0.109667 0.830645 0.652010 0.334280 0.236177 -0.581131 0.938470 0.859896 0.273175 -0.754946 -0.378452 -0.646128 0.527149 -0.205474 0.603036 -0.773334 0.574802 0.697134 0.725740 -0.494151 0.798638 0.714126 0.320989 0.863474 0.409039 0.724699 0.015964 0.305039 0.787615 -0.557525 -0.327126 -0.005097 0.333149 -0.763681 0.813652 -0.945274 0.776829 0.168392 0.159262 0.724013 0.488943 -0.337001 0.022452 -0.652428 0.643855 -0.728925 0.952425 -0.588732 -0.821906 0.231097 0.043011 0.881290 -0.164967 -0.601545 -0.159463 -0.088554 -0.320990 -0.879800 -0.796865 -0.917401 -0.760139 0.342504 0.463522 0.422456 0.215327 0.992795 -0.102530 0.778347 -0.316204 -0.448438 -0.894252 0.310638 0.886134 -0.741628 -0.547359 0.531954 0.544641 -0.223315 0.748267 0.123648 0.157047 -0.515401 -0.351524 -0.069859 -0.117966 -0.655948 -0.518613 -0.327708 0.214352 0.611609 -0.689986 -0.587011 0.100270 -0.766652 0.887865 0.353510 -0.559990 0.254429 0.184776 -0.462391 0.602258 0.153906 0.693453 0.858416 -0.604818 0.816372 0.759674 -0.166478 -0.001102 -0.529422 -0.000310 0.796568 -0.082287 -0.998909 -0.668060 -0.092699 0.014337 0.963508 -0.316792 -0.329088 -0.984102 0.192262 -0.649717 0.210949 -0.578833 -0.449214 0.059159 0.291652 -0.208386 -0.346145 0.336806 0.692508 0.981233 -0.421793 0.922552 -0.672657 0.659863 0.314696 -0.907355 0.083603 -0.877432 